svm_type c_svc
kernel_type rbf
gamma 0.1
nr_class 2
total_sv 894
rho -0.99994
label 0 1
nr_sv 447 447
SV
0.0001 0:0.0056818184 1:0.0056818184 2:0 3:0.0056818184 4:0.0056818184 5:0.0056818184 6:0.0056818184 7:0.028409092 8:0.0056818184 9:0 10:0 11:0 12:0 13:0 14:0 15:0 16:0 17:0 18:0.017045455 19:0 20:0 21:0.0056818184 22:0.011363637 23:0.011363637 24:0 25:0 26:0 27:0.0056818184 28:0.022727273 29:0.0056818184 30:0 31:0.0056818184 32:0.017045455 33:0.0056818184 34:0 35:0 36:0 37:0.011363637 38:0.0056818184 39:0 40:0.0056818184 41:0.011363637 42:0 43:0.017045455 44:0.0056818184 45:0 46:0 47:0 48:0 49:0 50:0 51:0.011363637 52:0.0056818184 53:0.0056818184 54:0 55:0 56:0.0056818184 57:0 58:0 59:0.0056818184 60:0.0056818184 61:0.022727273 62:0.0056818184 63:0 64:0.0056818184 65:0 66:0.022727273 67:0 68:0 69:0 70:0.03409091 71:0.0056818184 72:0 73:0.017045455 74:0.011363637 75:0 76:0.0056818184 77:0 78:0.0056818184 79:0 80:0 81:0.017045455 82:0 83:0 84:0.0056818184 85:0 86:0 87:0.0056818184 88:0 89:0 90:0.0056818184 91:0 92:0 93:0.0056818184 94:0.0056818184 95:0 96:0.0056818184 97:0 98:0 99:0 100:0 101:0 102:0 103:0 104:0.0056818184 105:0 106:0 107:0 108:0 109:0 110:0 111:0 112:0 113:0 114:0 115:0 116:0.017045455 117:0 118:0.011363637 119:0.0056818184 120:0 121:0 122:0 123:0 124:0.011363637 125:0 126:0 127:0 128:0.0056818184 129:0 130:0.0056818184 131:0 132:0.0056818184 133:0.0056818184 134:0 135:0.0056818184 136:0 137:0 138:0 139:0.0056818184 140:0.022727273 141:0.0056818184 142:0 143:0 144:0 145:0.017045455 146:0 147:0 148:0 149:0 150:0 151:0 152:0.011363637 153:0.011363637 154:0 155:0.0056818184 156:0 157:0.0056818184 158:0 159:0 160:0 161:0 162:0.011363637 163:0 164:0 165:0 166:0 167:0.011363637 168:0.022727273 169:0 170:0 171:0 172:0 173:0.0056818184 174:0 175:0.0056818184 176:0 177:0.017045455 178:0.028409092 179:0 180:0 181:0 182:0.0056818184 183:0 184:0.011363637 185:0 186:0 187:0 188:0 189:0.011363637 190:0.0056818184 191:0 192:0 193:0 194:0.0056818184 195:0.0056818184 196:0.0056818184 197:0 198:0.0056818184 199:0 200:0 201:0 202:0.0056818184 203:0.011363637 204:0 205:0.011363637 206:0 207:0 208:0.011363637 209:0 210:0 211:0 212:0.0056818184 213:0 214:0.011363637 215:0 216:0.022727273 217:0 218:0 219:0 220:0 221:0.017045455 222:0.011363637 223:0 224:0 225:0 226:0 227:0.011363637 228:0 229:0 230:0.0056818184 231:0.011363637 232:0.011363637 233:0.022727273 234:0 235:0 236:0 237:0 238:0 239:0 240:0.0056818184 241:0 242:0 243:0 244:0.0056818184 245:0 246:0.0056818184 247:0 248:0.0056818184 249:0.022727273 
0.0001 0:0.0044247787 1:0 2:0.017699115 3:0.0044247787 4:0.0044247787 5:0 6:0 7:0.0044247787 8:0.0088495575 9:0 10:0.0088495575 11:0.017699115 12:0 13:0 14:0.0088495575 15:0 16:0 17:0 18:0 19:0 20:0.0088495575 21:0.0088495575 22:0.0044247787 23:0.0088495575 24:0 25:0 26:0 27:0.0044247787 28:0.0044247787 29:0 30:0 31:0.0044247787 32:0.022123894 33:0.0044247787 34:0 35:0.0044247787 36:0 37:0 38:0.0044247787 39:0.0044247787 40:0.0088495575 41:0.0044247787 42:0 43:0.0044247787 44:0 45:0 46:0.0044247787 47:0 48:0 49:0 50:0.0044247787 51:0.026548672 52:0.017699115 53:0.0044247787 54:0 55:0 56:0.0088495575 57:0 58:0.0088495575 59:0 60:0 61:0.013274336 62:0.0088495575 63:0 64:0.0088495575 65:0 66:0.0044247787 67:0.0088495575 68:0 69:0.0044247787 70:0.0088495575 71:0 72:0 73:0 74:0 75:0.0044247787 76:0.013274336 77:0 78:0 79:0 80:0 81:0.0088495575 82:0 83:0.0044247787 84:0.013274336 85:0 86:0 87:0 88:0.0088495575 89:0 90:0.0088495575 91:0 92:0 93:0.0088495575 94:0.0088495575 95:0 96:0 97:0 98:0 99:0.013274336 100:0.0044247787 101:0 102:0.0088495575 103:0 104:0.0044247787 105:0 106:0.0088495575 107:0.0088495575 108:0.0044247787 109:0.0044247787 110:0.0044247787 111:0 112:0 113:0.0044247787 114:0.0044247787 115:0 116:0.0044247787 117:0.0044247787 118:0 119:0 120:0.0044247787 121:0 122:0 123:0.0044247787 124:0.0044247787 125:0 126:0 127:0.0044247787 128:0.013274336 129:0 130:0.0088495575 131:0 132:0 133:0.0088495575 134:0.0088495575 135:0 136:0 137:0 138:0.0044247787 139:0.0044247787 140:0 141:0 142:0 143:0.0044247787 144:0.0044247787 145:0.0044247787 146:0.0044247787 147:0.066371679 148:0.0044247787 149:0 150:0 151:0.0088495575 152:0 153:0.0044247787 154:0.0044247787 155:0.0044247787 156:0 157:0 158:0 159:0.0044247787 160:0 161:0.013274336 162:0.0088495575 163:0.0088495575 164:0.0044247787 165:0.0044247787 166:0 167:0 168:0 169:0 170:0 171:0 172:0.0044247787 173:0 174:0.0044247787 175:0 176:0.0044247787 177:0.022123894 178:0.0088495575 179:0 180:0.0044247787 181:0.0044247787 182:0 183:0 184:0.013274336 185:0 186:0.022123894 187:0 188:0.0044247787 189:0.0044247787 190:0.0044247787 191:0 192:0.0044247787 193:0 194:0.0044247787 195:0 196:0 197:0.0044247787 198:0.0044247787 199:0 200:0 201:0 202:0 203:0.0044247787 204:0.0044247787 205:0.0044247787 206:0.0044247787 207:0 208:0.0088495575 209:0.0088495575 210:0 211:0 212:0.0044247787 213:0 214:0 215:0 216:0.022123894 217:0 218:0 219:0.0044247787 220:0.0088495575 221:0.0088495575 222:0.0044247787 223:0.017699115 224:0 225:0.0044247787 226:0.0088495575 227:0 228:0.0044247787 229:0 230:0.0044247787 231:0.017699115 232:0.0044247787 233:0.0044247787 234:0 235:0 236:0.0044247787 237:0 238:0 239:0 240:0.0044247787 241:0 242:0 243:0 244:0 245:0 246:0.0044247787 247:0 248:0.0044247787 249:0.013274336 
0.0001 0:0 1:0.010471204 2:0.015706807 3:0 4:0.015706807 5:0 6:0 7:0.015706807 8:0 9:0 10:0 11:0.010471204 12:0 13:0 14:0.010471204 15:0.015706807 16:0 17:0.0052356021 18:0.010471204 19:0 20:0 21:0 22:0.0052356021 23:0 24:0.0052356021 25:0 26:0 27:0 28:0.062827229 29:0 30:0 31:0.0052356021 32:0.010471204 33:0 34:0.010471204 35:0 36:0 37:0 38:0 39:0 40:0.010471204 41:0.0052356021 42:0.010471204 43:0 44:0.0052356021 45:0 46:0.0052356021 47:0.010471204 48:0 49:0 50:0 51:0.0052356021 52:0.015706807 53:0 54:0 55:0 56:0.020942409 57:0 58:0.0052356021 59:0.015706807 60:0 61:0.0052356021 62:0 63:0.0052356021 64:0.02617801 65:0 66:0.020942409 67:0 68:0.0052356021 69:0 70:0.031413615 71:0.0052356021 72:0 73:0.0052356021 74:0.010471204 75:0.010471204 76:0 77:0.0052356021 78:0 79:0 80:0.0052356021 81:0.0052356021 82:0.0052356021 83:0.0052356021 84:0.0052356021 85:0.0052356021 86:0 87:0.02617801 88:0.0052356021 89:0 90:0.0052356021 91:0 92:0 93:0 94:0 95:0 96:0 97:0 98:0 99:0.010471204 100:0 101:0.0052356021 102:0 103:0 104:0.0052356021 105:0 106:0 107:0.0052356021 108:0.0052356021 109:0 110:0 111:0.0052356021 112:0 113:0 114:0 115:0 116:0 117:0 118:0 119:0 120:0.0052356021 121:0.0052356021 122:0.0052356021 123:0.0052356021 124:0 125:0 126:0.0052356021 127:0.0052356021 128:0.015706807 129:0 130:0 131:0.0052356021 132:0 133:0.0052356021 134:0.0052356021 135:0.0052356021 136:0 137:0 138:0.010471204 139:0 140:0.0052356021 141:0.0052356021 142:0 143:0 144:0.0052356021 145:0 146:0.010471204 147:0 148:0 149:0.0052356021 150:0 151:0 152:0.0052356021 153:0.0052356021 154:0.010471204 155:0 156:0 157:0 158:0 159:0.0052356021 160:0.0052356021 161:0.0052356021 162:0.010471204 163:0.010471204 164:0.0052356021 165:0 166:0 167:0.031413615 168:0 169:0 170:0.0052356021 171:0 172:0.010471204 173:0 174:0.0052356021 175:0.010471204 176:0 177:0 178:0.036649216 179:0 180:0 181:0.0052356021 182:0 183:0 184:0.020942409 185:0 186:0 187:0 188:0 189:0.0052356021 190:0.0052356021 191:0 192:0.0052356021 193:0 194:0 195:0 196:0 197:0 198:0 199:0 200:0.0052356021 201:0 202:0 203:0 204:0.0052356021 205:0 206:0 207:0 208:0.0052356021 209:0 210:0.020942409 211:0 212:0.015706807 213:0 214:0 215:0 216:0 217:0.0052356021 218:0 219:0 220:0 221:0 222:0 223:0 224:0.0052356021 225:0 226:0.0052356021 227:0 228:0 229:0.0052356021 230:0.010471204 231:0 232:0.020942409 233:0.0052356021 234:0 235:0 236:0 237:0 238:0 239:0 240:0 241:0 242:0 243:0 244:0 245:0 246:0.0052356021 247:0 248:0 249:0.015706807 
0.0001 0:0.005509642 1:0.002754821 2:0 3:0 4:0.011019284 5:0.0082644634 6:0.002754821 7:0 8:0.005509642 9:0 10:0.005509642 11:0 12:0.0082644634 13:0 14:0 15:0.005509642 16:0.002754821 17:0.0082644634 18:0.005509642 19:0 20:0.002754821 21:0 22:0 23:0.002754821 24:0.022038568 25:0.005509642 26:0.005509642 27:0 28:0.022038568 29:0 30:0 31:0 32:0.002754821 33:0.002754821 34:0.005509642 35:0.013774104 36:0 37:0.005509642 38:0.005509642 39:0.005509642 40:0 41:0 42:0.002754821 43:0.002754821 44:0.005509642 45:0.016528927 46:0 47:0 48:0 49:0 50:0.005509642 51:0.005509642 52:0 53:0.005509642 54:0.005509642 55:0 56:0.005509642 57:0.005509642 58:0.0082644634 59:0.002754821 60:0.002754821 61:0.0082644634 62:0.002754821 63:0.002754821 64:0 65:0.005509642 66:0.002754821 67:0.005509642 68:0 69:0.002754821 70:0.005509642 71:0 72:0.011019284 73:0 74:0.002754821 75:0.002754821 76:0.002754821 77:0.011019284 78:0.002754821 79:0 80:0.002754821 81:0.005509642 82:0.002754821 83:0.002754821 84:0.005509642 85:0.0082644634 86:0 87:0.002754821 88:0.0082644634 89:0.002754821 90:0.002754821 91:0 92:0.011019284 93:0 94:0.002754821 95:0.005509642 96:0.002754821 97:0.002754821 98:0 99:0.016528927 100:0.002754821 101:0.005509642 102:0.002754821 103:0.002754821 104:0.002754821 105:0.005509642 106:0.005509642 107:0 108:0 109:0.011019284 110:0.002754821 111:0 112:0 113:0.005509642 114:0.0082644634 115:0.005509642 116:0 117:0.005509642 118:0 119:0.002754821 120:0.0082644634 121:0 122:0.005509642 123:0.005509642 124:0.005509642 125:0.019283747 126:0.002754821 127:0.002754821 128:0.005509642 129:0.002754821 130:0 131:0 132:0 133:0 134:0 135:0 136:0 137:0.011019284 138:0.002754821 139:0 140:0.002754821 141:0.011019284 142:0.005509642 143:0.005509642 144:0 145:0.005509642 146:0.0082644634 147:0.002754821 148:0.002754821 149:0.002754821 150:0.0082644634 151:0 152:0.0082644634 153:0.002754821 154:0 155:0.002754821 156:0.0082644634 157:0 158:0.002754821 159:0.0082644634 160:0.002754821 161:0.0082644634 162:0.005509642 163:0.013774104 164:0.002754821 165:0.002754821 166:0.002754821 167:0.011019284 168:0 169:0.002754821 170:0.002754821 171:0.002754821 172:0.002754821 173:0 174:0.0082644634 175:0 176:0 177:0.002754821 178:0.024793388 179:0.016528927 180:0 181:0 182:0.0082644634 183:0.002754821 184:0.030303031 185:0.002754821 186:0 187:0.0082644634 188:0.002754821 189:0.030303031 190:0 191:0 192:0.002754821 193:0.002754821 194:0 195:0 196:0 197:0 198:0.002754821 199:0.005509642 200:0 201:0.002754821 202:0.002754821 203:0 204:0.013774104 205:0 206:0.002754821 207:0.011019284 208:0 209:0 210:0.0082644634 211:0.002754821 212:0.002754821 213:0.002754821 214:0 215:0.005509642 216:0 217:0 218:0.002754821 219:0 220:0 221:0 222:0.013774104 223:0 224:0.002754821 225:0 226:0.013774104 227:0.002754821 228:0.005509642 229:0.011019284 230:0.002754821 231:0.005509642 232:0.002754821 233:0 234:0 235:0 236:0 237:0.002754821 238:0 239:0.005509642 240:0.0082644634 241:0 242:0.005509642 243:0.0082644634 244:0.002754821 245:0 246:0 247:0 248:0.005509642 249:0 
0.0001 0:0.0023364485 1:0.0070093456 2:0.0023364485 3:0.0023364485 4:0 5:0.0023364485 6:0.004672897 7:0.0023364485 8:0.0093457941 9:0.004672897 10:0.004672897 11:0 12:0 13:0.0023364485 14:0.004672897 15:0 16:0.0023364485 17:0 18:0.014018691 19:0 20:0 21:0.004672897 22:0 23:0 24:0.011682242 25:0.004672897 26:0 27:0.0070093456 28:0.0093457941 29:0.004672897 30:0.0023364485 31:0.0023364485 32:0.011682242 33:0.004672897 34:0.0023364485 35:0.0070093456 36:0 37:0.0023364485 38:0.0070093456 39:0.004672897 40:0 41:0.0023364485 42:0.0023364485 43:0 44:0 45:0.0023364485 46:0.0093457941 47:0 48:0 49:0 50:0 51:0.004672897 52:0 53:0.004672897 54:0.0023364485 55:0.0023364485 56:0.014018691 57:0.0023364485 58:0.0023364485 59:0.0023364485 60:0 61:0.0093457941 62:0.0093457941 63:0.004672897 64:0.0093457941 65:0.0070093456 66:0.004672897 67:0.004672897 68:0.0093457941 69:0 70:0.0070093456 71:0 72:0.0070093456 73:0.0023364485 74:0 75:0.0023364485 76:0.0093457941 77:0.0023364485 78:0.0023364485 79:0.004672897 80:0.0023364485 81:0.004672897 82:0 83:0.0023364485 84:0.014018691 85:0.004672897 86:0.0070093456 87:0.0023364485 88:0 89:0.004672897 90:0.0023364485 91:0.0023364485 92:0.0023364485 93:0.0023364485 94:0.0023364485 95:0.0070093456 96:0.004672897 97:0.0023364485 98:0.0023364485 99:0.0023364485 100:0.004672897 101:0.0023364485 102:0.0023364485 103:0.014018691 104:0.004672897 105:0 106:0.0070093456 107:0 108:0.0023364485 109:0.0070093456 110:0.0023364485 111:0.004672897 112:0.0023364485 113:0.0023364485 114:0.0023364485 115:0 116:0 117:0.0023364485 118:0 119:0.0070093456 120:0.0023364485 121:0.0070093456 122:0.004672897 123:0.0023364485 124:0.004672897 125:0 126:0.01635514 127:0.0023364485 128:0.0023364485 129:0 130:0 131:0.004672897 132:0.011682242 133:0.004672897 134:0.0023364485 135:0.0023364485 136:0 137:0.0093457941 138:0.004672897 139:0.0023364485 140:0.0023364485 141:0 142:0.0023364485 143:0.004672897 144:0.0093457941 145:0 146:0.0093457941 147:0.06775701 148:0 149:0.0093457941 150:0.0023364485 151:0 152:0.056074765 153:0 154:0.0023364485 155:0 156:0.014018691 157:0 158:0.004672897 159:0.0023364485 160:0.0023364485 161:0.0023364485 162:0.0023364485 163:0 164:0.0070093456 165:0.004672897 166:0 167:0.014018691 168:0 169:0.0070093456 170:0 171:0 172:0.0070093456 173:0.0023364485 174:0 175:0.004672897 176:0.0023364485 177:0.011682242 178:0.0023364485 179:0 180:0.004672897 181:0.004672897 182:0.0070093456 183:0.004672897 184:0.004672897 185:0.004672897 186:0.0023364485 187:0.0023364485 188:0 189:0 190:0 191:0.0023364485 192:0 193:0 194:0.0023364485 195:0.004672897 196:0.0023364485 197:0 198:0.0070093456 199:0 200:0.0023364485 201:0.004672897 202:0 203:0.004672897 204:0.004672897 205:0 206:0.0070093456 207:0.0023364485 208:0.004672897 209:0 210:0.0023364485 211:0.014018691 212:0.004672897 213:0 214:0.004672897 215:0.004672897 216:0.0093457941 217:0.0023364485 218:0.004672897 219:0.0023364485 220:0.0093457941 221:0.0023364485 222:0.004672897 223:0 224:0.0023364485 225:0.0023364485 226:0 227:0 228:0.004672897 229:0 230:0 231:0.004672897 232:0 233:0.0070093456 234:0.0070093456 235:0 236:0.0023364485 237:0.004672897 238:0.0023364485 239:0.004672897 240:0.0023364485 241:0.0023364485 242:0 243:0 244:0.0070093456 245:0.0023364485 246:0.0070093456 247:0.0023364485 248:0 249:0.004672897 
0.0001 0:0 1:0.010526316 2:0 3:0.010526316 4:0.021052632 5:0 6:0 7:0 8:0 9:0 10:0 11:0 12:0.010526316 13:0 14:0 15:0 16:0 17:0 18:0.031578951 19:0.010526316 20:0 21:0 22:0.010526316 23:0.010526316 24:0 25:0 26:0 27:0 28:0 29:0 30:0 31:0 32:0 33:0 34:0 35:0 36:0.010526316 37:0 38:0 39:0 40:0 41:0 42:0.021052632 43:0 44:0 45:0 46:0.010526316 47:0.010526316 48:0.010526316 49:0 50:0 51:0.010526316 52:0 53:0 54:0 55:0.010526316 56:0 57:0 58:0 59:0 60:0 61:0.021052632 62:0.010526316 63:0.021052632 64:0.073684216 65:0 66:0.010526316 67:0.010526316 68:0 69:0 70:0.010526316 71:0 72:0 73:0 74:0 75:0.010526316 76:0 77:0 78:0 79:0.010526316 80:0 81:0.031578951 82:0 83:0 84:0.010526316 85:0 86:0.021052632 87:0 88:0.021052632 89:0 90:0 91:0.042105265 92:0 93:0 94:0.010526316 95:0 96:0 97:0 98:0 99:0.010526316 100:0.010526316 101:0 102:0 103:0 104:0.010526316 105:0.010526316 106:0 107:0.010526316 108:0 109:0 110:0 111:0 112:0 113:0.010526316 114:0 115:0 116:0.010526316 117:0 118:0 119:0.010526316 120:0.021052632 121:0.010526316 122:0 123:0 124:0 125:0 126:0.010526316 127:0 128:0.010526316 129:0 130:0.010526316 131:0 132:0.031578951 133:0.021052632 134:0 135:0 136:0 137:0 138:0 139:0 140:0 141:0 142:0 143:0 144:0 145:0 146:0 147:0.010526316 148:0 149:0.010526316 150:0 151:0 152:0 153:0.010526316 154:0 155:0 156:0 157:0 158:0.010526316 159:0 160:0.010526316 161:0 162:0 163:0 164:0 165:0 166:0 167:0 168:0 169:0 170:0.010526316 171:0 172:0 173:0 174:0 175:0 176:0 177:0 178:0.042105265 179:0 180:0 181:0 182:0 183:0.010526316 184:0 185:0 186:0 187:0 188:0 189:0 190:0 191:0 192:0 193:0 194:0 195:0 196:0 197:0.010526316 198:0 199:0 200:0 201:0.010526316 202:0 203:0 204:0 205:0 206:0 207:0 208:0 209:0 210:0.042105265 211:0 212:0 213:0 214:0 215:0 216:0 217:0 218:0 219:0 220:0.010526316 221:0.010526316 222:0 223:0.010526316 224:0 225:0 226:0.010526316 227:0.010526316 228:0 229:0 230:0 231:0 232:0 233:0 234:0 235:0 236:0 237:0 238:0 239:0 240:0.010526316 241:0 242:0 243:0 244:0 245:0 246:0 247:0 248:0.021052632 249:0.021052632 
0.0001 0:0 1:0 2:0 3:0 4:0.01369863 5:0 6:0 7:0 8:0 9:0 10:0 11:0 12:0 13:0 14:0 15:0.01369863 16:0.01369863 17:0 18:0.04109589 19:0.01369863 20:0 21:0 22:0.01369863 23:0 24:0 25:0 26:0 27:0 28:0 29:0 30:0 31:0 32:0 33:0.01369863 34:0 35:0.05479452 36:0 37:0 38:0.01369863 39:0 40:0.01369863 41:0.01369863 42:0 43:0 44:0 45:0 46:0 47:0 48:0 49:0.01369863 50:0 51:0 52:0 53:0 54:0 55:0.01369863 56:0 57:0.01369863 58:0 59:0 60:0 61:0 62:0 63:0.01369863 64:0 65:0 66:0 67:0 68:0 69:0 70:0 71:0 72:0 73:0 74:0 75:0.01369863 76:0 77:0 78:0 79:0 80:0 81:0 82:0 83:0.01369863 84:0 85:0 86:0 87:0 88:0 89:0 90:0 91:0 92:0 93:0 94:0 95:0 96:0 97:0 98:0 99:0 100:0 101:0 102:0 103:0 104:0 105:0 106:0 107:0.01369863 108:0.01369863 109:0 110:0 111:0 112:0 113:0 114:0 115:0 116:0 117:0 118:0 119:0 120:0 121:0.02739726 122:0 123:0 124:0 125:0 126:0.02739726 127:0 128:0 129:0 130:0.02739726 131:0 132:0 133:0 134:0 135:0 136:0 137:0 138:0 139:0 140:0 141:0 142:0 143:0.01369863 144:0 145:0.04109589 146:0.01369863 147:0 148:0 149:0 150:0 151:0 152:0.01369863 153:0 154:0 155:0 156:0 157:0 158:0 159:0.01369863 160:0 161:0 162:0 163:0.01369863 164:0 165:0.01369863 166:0 167:0.04109589 168:0.01369863 169:0.01369863 170:0.01369863 171:0 172:0 173:0 174:0 175:0 176:0 177:0 178:0 179:0 180:0.01369863 181:0 182:0 183:0.02739726 184:0 185:0 186:0 187:0.01369863 188:0.01369863 189:0 190:0.02739726 191:0 192:0 193:0 194:0 195:0 196:0 197:0.04109589 198:0 199:0 200:0 201:0 202:0.01369863 203:0.01369863 204:0 205:0.02739726 206:0 207:0 208:0 209:0 210:0.1369863 211:0 212:0 213:0 214:0 215:0 216:0 217:0 218:0 219:0 220:0 221:0 222:0 223:0 224:0 225:0 226:0 227:0 228:0 229:0 230:0.01369863 231:0 232:0 233:0.01369863 234:0 235:0 236:0 237:0 238:0 239:0 240:0 241:0 242:0.01369863 243:0 244:0 245:0 246:0.01369863 247:0 248:0 249:0 
0.0001 0:0 1:0 2:0 3:0.011363637 4:0.011363637 5:0 6:0 7:0 8:0 9:0 10:0 11:0.011363637 12:0 13:0 14:0 15:0.022727273 16:0.011363637 17:0.011363637 18:0 19:0 20:0 21:0 22:0.03409091 23:0 24:0 25:0 26:0 27:0 28:0 29:0 30:0 31:0 32:0.011363637 33:0 34:0 35:0.011363637 36:0 37:0 38:0 39:0 40:0 41:0 42:0.11363637 43:0 44:0 45:0 46:0.056818184 47:0.011363637 48:0 49:0 50:0 51:0 52:0.011363637 53:0 54:0 55:0 56:0 57:0 58:0 59:0 60:0 61:0 62:0 63:0 64:0 65:0 66:0 67:0 68:0 69:0.011363637 70:0 71:0 72:0 73:0 74:0.011363637 75:0 76:0 77:0 78:0 79:0.011363637 80:0 81:0 82:0 83:0 84:0 85:0 86:0 87:0.045454547 88:0.011363637 89:0 90:0 91:0 92:0 93:0 94:0 95:0 96:0 97:0 98:0 99:0 100:0 101:0 102:0 103:0 104:0 105:0 106:0 107:0.011363637 108:0 109:0 110:0 111:0 112:0 113:0 114:0 115:0 116:0 117:0 118:0 119:0 120:0.011363637 121:0 122:0 123:0.011363637 124:0 125:0 126:0 127:0 128:0.011363637 129:0 130:0 131:0 132:0.090909094 133:0 134:0 135:0 136:0.011363637 137:0 138:0 139:0 140:0 141:0 142:0 143:0 144:0 145:0 146:0 147:0 148:0 149:0 150:0 151:0 152:0.19318183 153:0 154:0 155:0 156:0 157:0 158:0.011363637 159:0 160:0 161:0 162:0 163:0 164:0.011363637 165:0 166:0 167:0 168:0 169:0 170:0.022727273 171:0 172:0 173:0 174:0 175:0 176:0 177:0 178:0 179:0 180:0.011363637 181:0.011363637 182:0 183:0 184:0 185:0.022727273 186:0 187:0 188:0 189:0 190:0 191:0 192:0 193:0 194:0 195:0 196:0 197:0 198:0 199:0 200:0.03409091 201:0.011363637 202:0 203:0 204:0 205:0 206:0 207:0 208:0 209:0.011363637 210:0 211:0 212:0 213:0 214:0 215:0 216:0 217:0 218:0 219:0 220:0.022727273 221:0 222:0.011363637 223:0 224:0 225:0 226:0 227:0 228:0 229:0 230:0.011363637 231:0 232:0 233:0 234:0 235:0 236:0 237:0 238:0 239:0 240:0 241:0 242:0 243:0 244:0 245:0 246:0.045454547 247:0 248:0 249:0 
0.0001 0:0 1:0.0082644625 2:0 3:0.0041322312 4:0.012396693 5:0.0082644625 6:0 7:0.0041322312 8:0.0041322312 9:0 10:0 11:0.0082644625 12:0 13:0 14:0 15:0.012396693 16:0 17:0 18:0.016528925 19:0.0041322312 20:0.0041322312 21:0.020661157 22:0.016528925 23:0 24:0.028925618 25:0 26:0 27:0 28:0.020661157 29:0 30:0.0041322312 31:0 32:0.012396693 33:0.0041322312 34:0 35:0.041322313 36:0 37:0.0041322312 38:0 39:0.0041322312 40:0.0041322312 41:0 42:0.012396693 43:0 44:0 45:0 46:0 47:0.0041322312 48:0 49:0 50:0 51:0.016528925 52:0.0082644625 53:0.0041322312 54:0 55:0 56:0.0082644625 57:0.0082644625 58:0 59:0.0082644625 60:0 61:0.0041322312 62:0 63:0 64:0.0082644625 65:0.0041322312 66:0 67:0 68:0 69:0 70:0.0041322312 71:0 72:0 73:0 74:0 75:0.0041322312 76:0 77:0 78:0 79:0 80:0 81:0.0041322312 82:0 83:0.012396693 84:0.016528925 85:0 86:0.016528925 87:0 88:0.0041322312 89:0.0041322312 90:0.0041322312 91:0 92:0.0082644625 93:0.0041322312 94:0.0041322312 95:0.0041322312 96:0 97:0.016528925 98:0.0041322312 99:0.0041322312 100:0.012396693 101:0.0082644625 102:0 103:0.0082644625 104:0 105:0 106:0 107:0 108:0.0041322312 109:0 110:0.0082644625 111:0.0041322312 112:0 113:0.0082644625 114:0 115:0 116:0 117:0.0082644625 118:0 119:0 120:0 121:0.012396693 122:0 123:0 124:0 125:0 126:0.012396693 127:0.012396693 128:0.0041322312 129:0.0041322312 130:0 131:0.0041322312 132:0.012396693 133:0 134:0.0041322312 135:0.0041322312 136:0 137:0 138:0.0041322312 139:0.0041322312 140:0 141:0 142:0.0041322312 143:0 144:0.0082644625 145:0.0082644625 146:0.0041322312 147:0 148:0.0041322312 149:0.0041322312 150:0 151:0.0041322312 152:0.0041322312 153:0 154:0.012396693 155:0 156:0 157:0.0041322312 158:0.0041322312 159:0.0041322312 160:0.0041322312 161:0.0041322312 162:0 163:0.016528925 164:0 165:0 166:0 167:0.020661157 168:0.0041322312 169:0 170:0 171:0.0041322312 172:0.0041322312 173:0 174:0.0082644625 175:0.0082644625 176:0.0041322312 177:0.012396693 178:0.020661157 179:0 180:0.0082644625 181:0 182:0 183:0.012396693 184:0.0082644625 185:0 186:0 187:0.0041322312 188:0 189:0 190:0 191:0 192:0.0041322312 193:0.0041322312 194:0 195:0 196:0.0041322312 197:0.0041322312 198:0.012396693 199:0.0041322312 200:0.0041322312 201:0 202:0 203:0 204:0.0041322312 205:0 206:0.0041322312 207:0 208:0 209:0 210:0.020661157 211:0.0041322312 212:0.045454543 213:0 214:0 215:0.0041322312 216:0 217:0.012396693 218:0 219:0 220:0 221:0.0041322312 222:0.0041322312 223:0 224:0.012396693 225:0 226:0 227:0 228:0 229:0 230:0 231:0.0041322312 232:0.0041322312 233:0.0041322312 234:0.0041322312 235:0 236:0.0041322312 237:0 238:0 239:0 240:0.0041322312 241:0 242:0.0041322312 243:0.0041322312 244:0.0041322312 245:0.0041322312 246:0 247:0 248:0.0041322312 249:0 
0.0001 0:0 1:0 2:0 3:0 4:0 5:0 6:0 7:0.02631579 8:0 9:0 10:0 11:0 12:0 13:0 14:0 15:0 16:0 17:0 18:0 19:0.02631579 20:0 21:0 22:0 23:0 24:0 25:0 26:0 27:0 28:0.02631579 29:0 30:0 31:0 32:0 33:0 34:0 35:0 36:0 37:0 38:0 39:0 40:0 41:0 42:0.10526316 43:0 44:0 45:0 46:0 47:0.02631579 48:0 49:0 50:0 51:0 52:0.02631579 53:0 54:0 55:0 56:0.02631579 57:0 58:0.02631579 59:0 60:0 61:0 62:0 63:0 64:0 65:0 66:0 67:0 68:0 69:0 70:0.10526316 71:0 72:0 73:0 74:0 75:0 76:0 77:0.02631579 78:0 79:0 80:0 81:0 82:0 83:0 84:0 85:0 86:0 87:0 88:0 89:0 90:0 91:0 92:0 93:0 94:0 95:0 96:0 97:0 98:0 99:0 100:0 101:0 102:0 103:0 104:0 105:0 106:0 107:0 108:0 109:0 110:0 111:0 112:0 113:0 114:0 115:0 116:0 117:0 118:0 119:0 120:0 121:0 122:0 123:0 124:0 125:0 126:0 127:0 128:0 129:0 130:0 131:0.02631579 132:0 133:0 134:0 135:0.02631579 136:0 137:0 138:0 139:0.02631579 140:0 141:0 142:0 143:0 144:0 145:0 146:0 147:0 148:0 149:0 150:0 151:0 152:0 153:0.052631579 154:0 155:0 156:0 157:0 158:0 159:0.052631579 160:0 161:0 162:0 163:0.02631579 164:0 165:0 166:0 167:0 168:0 169:0.02631579 170:0 171:0 172:0.02631579 173:0 174:0 175:0.02631579 176:0 177:0 178:0 179:0 180:0 181:0 182:0 183:0 184:0.02631579 185:0 186:0 187:0 188:0 189:0 190:0.02631579 191:0 192:0 193:0 194:0 195:0 196:0 197:0.02631579 198:0 199:0 200:0 201:0 202:0 203:0 204:0 205:0 206:0.052631579 207:0 208:0 209:0 210:0 211:0 212:0 213:0 214:0.052631579 215:0 216:0.02631579 217:0 218:0 219:0 220:0 221:0 222:0 223:0 224:0 225:0 226:0 227:0.02631579 228:0 229:0.02631579 230:0 231:0 232:0.02631579 233:0 234:0 235:0 236:0 237:0 238:0 239:0 240:0 241:0 242:0 243:0 244:0 245:0 246:0 247:0 248:0 249:0 
0.0001 0:0 1:0 2:0.010309278 3:0 4:0 5:0 6:0 7:0.030927833 8:0 9:0 10:0 11:0 12:0 13:0 14:0.010309278 15:0 16:0 17:0 18:0 19:0 20:0.010309278 21:0 22:0 23:0 24:0 25:0 26:0 27:0 28:0.010309278 29:0 30:0 31:0 32:0.030927833 33:0 34:0.010309278 35:0 36:0.010309278 37:0.010309278 38:0.010309278 39:0 40:0 41:0 42:0.030927833 43:0 44:0.020618556 45:0 46:0 47:0 48:0 49:0 50:0 51:0.020618556 52:0.010309278 53:0 54:0 55:0 56:0.010309278 57:0 58:0.010309278 59:0.020618556 60:0 61:0 62:0 63:0.010309278 64:0 65:0 66:0.020618556 67:0 68:0 69:0 70:0.020618556 71:0 72:0 73:0.020618556 74:0 75:0 76:0.010309278 77:0 78:0 79:0 80:0 81:0 82:0 83:0 84:0.010309278 85:0 86:0 87:0 88:0 89:0 90:0.020618556 91:0.010309278 92:0 93:0 94:0 95:0 96:0 97:0 98:0 99:0 100:0 101:0 102:0 103:0 104:0.030927833 105:0 106:0 107:0 108:0 109:0 110:0 111:0 112:0 113:0 114:0.020618556 115:0 116:0 117:0 118:0.010309278 119:0 120:0 121:0 122:0 123:0.010309278 124:0.010309278 125:0 126:0 127:0 128:0 129:0 130:0.010309278 131:0 132:0 133:0.010309278 134:0.010309278 135:0.010309278 136:0 137:0 138:0 139:0 140:0 141:0.010309278 142:0 143:0.010309278 144:0 145:0.010309278 146:0 147:0.020618556 148:0 149:0 150:0 151:0.020618556 152:0.041237112 153:0.020618556 154:0 155:0 156:0 157:0.020618556 158:0 159:0 160:0 161:0 162:0.051546391 163:0.020618556 164:0 165:0 166:0 167:0 168:0 169:0 170:0 171:0 172:0 173:0 174:0 175:0.010309278 176:0.010309278 177:0 178:0.010309278 179:0 180:0.010309278 181:0 182:0 183:0 184:0 185:0 186:0 187:0 188:0 189:0.010309278 190:0.020618556 191:0 192:0 193:0.010309278 194:0.010309278 195:0 196:0 197:0 198:0 199:0 200:0 201:0 202:0 203:0.010309278 204:0 205:0 206:0 207:0 208:0 209:0 210:0 211:0 212:0 213:0 214:0 215:0 216:0.010309278 217:0 218:0 219:0 220:0.010309278 221:0 222:0 223:0 224:0 225:0 226:0.010309278 227:0 228:0 229:0 230:0 231:0.030927833 232:0.010309278 233:0 234:0 235:0 236:0 237:0 238:0 239:0 240:0 241:0 242:0 243:0 244:0.010309278 245:0.010309278 246:0.030927833 247:0 248:0.010309278 249:0.020618556 
0.0001 0:0 1:0 2:0 3:0 4:0 5:0 6:0 7:0 8:0 9:0 10:0 11:0 12:0 13:0 14:0 15:0 16:0 17:0 18:0 19:0 20:0 21:0 22:0 23:0 24:0 25:0.048780486 26:0 27:0 28:0.024390243 29:0 30:0 31:0 32:0 33:0 34:0 35:0 36:0 37:0 38:0.024390243 39:0 40:0 41:0 42:0 43:0 44:0 45:0 46:0 47:0 48:0 49:0 50:0 51:0 52:0.024390243 53:0 54:0 55:0 56:0 57:0 58:0 59:0 60:0 61:0.024390243 62:0 63:0.024390243 64:0 65:0 66:0 67:0.024390243 68:0.024390243 69:0 70:0.024390243 71:0 72:0.024390243 73:0.024390243 74:0 75:0 76:0 77:0 78:0 79:0 80:0 81:0 82:0 83:0 84:0 85:0 86:0 87:0.024390243 88:0 89:0 90:0 91:0 92:0.024390243 93:0 94:0 95:0 96:0 97:0 98:0 99:0 100:0 101:0 102:0 103:0 104:0 105:0 106:0 107:0 108:0 109:0 110:0.024390243 111:0 112:0 113:0 114:0 115:0 116:0 117:0.048780486 118:0 119:0 120:0 121:0 122:0 123:0 124:0 125:0 126:0 127:0 128:0 129:0 130:0 131:0 132:0 133:0 134:0 135:0 136:0 137:0 138:0.024390243 139:0 140:0 141:0 142:0 143:0 144:0.048780486 145:0 146:0 147:0 148:0 149:0.024390243 150:0 151:0 152:0 153:0 154:0 155:0 156:0 157:0 158:0 159:0.024390243 160:0 161:0 162:0 163:0.024390243 164:0 165:0 166:0 167:0 168:0 169:0 170:0 171:0 172:0 173:0 174:0 175:0 176:0 177:0 178:0.048780486 179:0 180:0 181:0 182:0.024390243 183:0 184:0.073170729 185:0 186:0 187:0 188:0 189:0 190:0 191:0 192:0.024390243 193:0.024390243 194:0 195:0 196:0 197:0 198:0 199:0 200:0 201:0 202:0 203:0.048780486 204:0 205:0 206:0 207:0.024390243 208:0 209:0 210:0 211:0.024390243 212:0 213:0 214:0 215:0 216:0.024390243 217:0 218:0 219:0 220:0 221:0 222:0 223:0 224:0 225:0 226:0 227:0 228:0 229:0 230:0 231:0 232:0 233:0 234:0.024390243 235:0 236:0 237:0 238:0 239:0 240:0.048780486 241:0 242:0.024390243 243:0 244:0 245:0 246:0 247:0 248:0.024390243 249:0 
0.0001 0:0 1:0.0018484289 2:0.0073937154 3:0.0018484289 4:0.0036968577 5:0.0036968577 6:0.0018484289 7:0.0018484289 8:0.0092421444 9:0.012939002 10:0 11:0.018484289 12:0.0018484289 13:0.0055452865 14:0.0092421444 15:0.0036968577 16:0.0018484289 17:0.0092421444 18:0 19:0.0036968577 20:0.0036968577 21:0.0055452865 22:0.0092421444 23:0.0073937154 24:0.0036968577 25:0.0055452865 26:0 27:0.0036968577 28:0.0018484289 29:0.0036968577 30:0.0073937154 31:0.0073937154 32:0.012939002 33:0.0036968577 34:0.0018484289 35:0.012939002 36:0.0055452865 37:0.0018484289 38:0.012939002 39:0.0018484289 40:0.0073937154 41:0 42:0.0036968577 43:0.011090573 44:0.0073937154 45:0 46:0 47:0 48:0.0018484289 49:0.0036968577 50:0.0018484289 51:0.0036968577 52:0.0036968577 53:0.0018484289 54:0 55:0.0018484289 56:0.0018484289 57:0.0092421444 58:0.012939002 59:0.0018484289 60:0.0092421444 61:0 62:0.0073937154 63:0.0055452865 64:0.0036968577 65:0.0036968577 66:0.0055452865 67:0 68:0.0092421444 69:0.0018484289 70:0.0036968577 71:0 72:0 73:0 74:0 75:0.0036968577 76:0.0036968577 77:0.0036968577 78:0 79:0 80:0.0036968577 81:0.0073937154 82:0.0018484289 83:0 84:0.0073937154 85:0.0018484289 86:0.011090573 87:0.016635859 88:0.0018484289 89:0.0018484289 90:0.0055452865 91:0.011090573 92:0.0036968577 93:0.0055452865 94:0.0018484289 95:0.0036968577 96:0 97:0.0018484289 98:0.0018484289 99:0 100:0.0018484289 101:0.0036968577 102:0.0036968577 103:0.014787431 104:0.0055452865 105:0 106:0.011090573 107:0.0018484289 108:0.0036968577 109:0.0073937154 110:0.012939002 111:0.0036968577 112:0 113:0.0018484289 114:0.0055452865 115:0 116:0.0036968577 117:0.0036968577 118:0 119:0.0092421444 120:0.0036968577 121:0.0092421444 122:0.0055452865 123:0 124:0.0018484289 125:0 126:0.0036968577 127:0.0018484289 128:0.011090573 129:0.0055452865 130:0.0073937154 131:0.0036968577 132:0.0018484289 133:0 134:0 135:0.0055452865 136:0.0036968577 137:0.0036968577 138:0.0036968577 139:0.0055452865 140:0.0036968577 141:0.0018484289 142:0 143:0.0036968577 144:0 145:0 146:0 147:0.0055452865 148:0.0018484289 149:0.0055452865 150:0 151:0.0036968577 152:0.0036968577 153:0 154:0.016635859 155:0.0018484289 156:0.0055452865 157:0.0018484289 158:0.0055452865 159:0.0092421444 160:0.0018484289 161:0.0018484289 162:0 163:0.014787431 164:0.0073937154 165:0.0018484289 166:0 167:0.011090573 168:0.0036968577 169:0.0036968577 170:0 171:0.0055452865 172:0.0036968577 173:0.0073937154 174:0.0073937154 175:0 176:0.0018484289 177:0.0018484289 178:0.0073937154 179:0 180:0.0036968577 181:0 182:0.0018484289 183:0.0073937154 184:0.016635859 185:0.0073937154 186:0.0036968577 187:0 188:0 189:0 190:0.0018484289 191:0 192:0.0036968577 193:0.0092421444 194:0.0073937154 195:0.0036968577 196:0.0036968577 197:0.0018484289 198:0.0036968577 199:0.0018484289 200:0.0036968577 201:0.0036968577 202:0 203:0.0018484289 204:0.0036968577 205:0.0018484289 206:0 207:0.0055452865 208:0.0018484289 209:0.0092421444 210:0.0073937154 211:0 212:0.0018484289 213:0 214:0.0073937154 215:0.0055452865 216:0.0018484289 217:0.0018484289 218:0.0055452865 219:0.0018484289 220:0.0036968577 221:0.0018484289 222:0.0073937154 223:0.0036968577 224:0.0018484289 225:0.0073937154 226:0.0055452865 227:0.0036968577 228:0 229:0 230:0.0036968577 231:0.0018484289 232:0.0036968577 233:0.0036968577 234:0.0018484289 235:0 236:0 237:0.0036968577 238:0.0036968577 239:0.0073937154 240:0.0036968577 241:0.0018484289 242:0.0055452865 243:0.0036968577 244:0.0018484289 245:0 246:0.0018484289 247:0.0018484289 248:0.0055452865 249:0.0092421444 
0.0001 0:0 1:0.0040322579 2:0.0040322579 3:0.012096774 4:0 5:0 6:0 7:0.012096774 8:0.016129032 9:0 10:0 11:0 12:0.012096774 13:0 14:0 15:0 16:0 17:0 18:0.016129032 19:0.0040322579 20:0 21:0 22:0 23:0 24:0.0080645159 25:0 26:0 27:0.016129032 28:0.0080645159 29:0 30:0.0040322579 31:0.0040322579 32:0.012096774 33:0.0080645159 34:0.0040322579 35:0 36:0 37:0 38:0.024193548 39:0.0080645159 40:0 41:0 42:0.012096774 43:0.0080645159 44:0.012096774 45:0 46:0 47:0 48:0 49:0.012096774 50:0 51:0.0080645159 52:0 53:0 54:0 55:0.0040322579 56:0 57:0.0080645159 58:0 59:0.0080645159 60:0 61:0.0080645159 62:0.0040322579 63:0 64:0 65:0 66:0.0080645159 67:0.0040322579 68:0 69:0.012096774 70:0 71:0 72:0.0080645159 73:0.0040322579 74:0 75:0.0040322579 76:0.0040322579 77:0.0040322579 78:0 79:0 80:0 81:0.0080645159 82:0.0080645159 83:0.0040322579 84:0.0080645159 85:0 86:0.012096774 87:0.0040322579 88:0 89:0 90:0.016129032 91:0.0040322579 92:0 93:0.0040322579 94:0 95:0.0040322579 96:0 97:0.0040322579 98:0.0040322579 99:0.0040322579 100:0.0040322579 101:0 102:0 103:0.0040322579 104:0.012096774 105:0 106:0 107:0.0040322579 108:0.0040322579 109:0 110:0 111:0.0040322579 112:0 113:0.012096774 114:0 115:0.0080645159 116:0.0080645159 117:0 118:0 119:0 120:0 121:0 122:0.0040322579 123:0 124:0.0040322579 125:0 126:0 127:0 128:0.0080645159 129:0 130:0.0080645159 131:0 132:0.0080645159 133:0.0080645159 134:0.02016129 135:0.012096774 136:0 137:0.0040322579 138:0 139:0.0080645159 140:0.02016129 141:0.0080645159 142:0.0040322579 143:0.0080645159 144:0.0040322579 145:0.0040322579 146:0.0080645159 147:0.028225806 148:0.0080645159 149:0.0040322579 150:0 151:0 152:0.016129032 153:0 154:0.0040322579 155:0 156:0 157:0 158:0 159:0.0040322579 160:0 161:0.0040322579 162:0.0040322579 163:0.0040322579 164:0.0080645159 165:0 166:0 167:0 168:0 169:0.0040322579 170:0 171:0 172:0 173:0 174:0 175:0.0040322579 176:0.012096774 177:0.016129032 178:0.0080645159 179:0 180:0 181:0 182:0 183:0.0080645159 184:0.012096774 185:0.0080645159 186:0.012096774 187:0 188:0 189:0.016129032 190:0.02016129 191:0 192:0 193:0 194:0.0040322579 195:0.0040322579 196:0.0040322579 197:0 198:0.0040322579 199:0.0080645159 200:0.0040322579 201:0.016129032 202:0 203:0.0080645159 204:0 205:0 206:0 207:0.0040322579 208:0.016129032 209:0 210:0.0040322579 211:0 212:0 213:0 214:0.012096774 215:0 216:0.0080645159 217:0 218:0.0040322579 219:0.0040322579 220:0 221:0 222:0.012096774 223:0.012096774 224:0 225:0.016129032 226:0 227:0.0080645159 228:0 229:0 230:0 231:0 232:0.0040322579 233:0.0080645159 234:0 235:0 236:0.0040322579 237:0.0080645159 238:0.0040322579 239:0 240:0 241:0 242:0 243:0.0040322579 244:0 245:0 246:0.0040322579 247:0 248:0.0080645159 249:0 
0.0001 0:0 1:0 2:0 3:0 4:0.045454547 5:0 6:0 7:0 8:0 9:0 10:0 11:0 12:0 13:0 14:0 15:0.045454547 16:0 17:0 18:0 19:0 20:0 21:0 22:0 23:0 24:0 25:0 26:0 27:0 28:0 29:0 30:0 31:0 32:0 33:0 34:0 35:0.045454547 36:0 37:0 38:0 39:0 40:0 41:0 42:0.045454547 43:0 44:0 45:0 46:0.045454547 47:0 48:0 49:0 50:0 51:0.090909094 52:0.045454547 53:0 54:0 55:0 56:0 57:0 58:0 59:0 60:0 61:0 62:0 63:0 64:0 65:0 66:0 67:0 68:0 69:0 70:0 71:0 72:0 73:0 74:0 75:0 76:0 77:0.045454547 78:0 79:0 80:0 81:0 82:0 83:0 84:0.045454547 85:0 86:0 87:0 88:0 89:0 90:0 91:0 92:0 93:0 94:0 95:0 96:0 97:0 98:0 99:0 100:0 101:0 102:0 103:0 104:0 105:0 106:0 107:0 108:0 109:0 110:0 111:0 112:0 113:0.045454547 114:0 115:0 116:0 117:0 118:0 119:0 120:0 121:0 122:0 123:0 124:0 125:0 126:0 127:0 128:0 129:0 130:0 131:0 132:0 133:0 134:0 135:0 136:0 137:0 138:0 139:0 140:0 141:0 142:0 143:0 144:0.090909094 145:0 146:0 147:0 148:0 149:0 150:0.045454547 151:0 152:0 153:0 154:0 155:0 156:0 157:0.045454547 158:0 159:0 160:0 161:0 162:0 163:0 164:0 165:0 166:0 167:0.045454547 168:0 169:0 170:0 171:0 172:0 173:0 174:0 175:0 176:0 177:0 178:0.045454547 179:0 180:0 181:0 182:0 183:0 184:0 185:0 186:0.13636364 187:0 188:0 189:0 190:0 191:0 192:0 193:0 194:0 195:0 196:0 197:0 198:0 199:0 200:0 201:0 202:0 203:0 204:0 205:0 206:0 207:0 208:0 209:0 210:0 211:0 212:0 213:0 214:0 215:0 216:0 217:0 218:0 219:0 220:0 221:0 222:0 223:0 224:0 225:0 226:0.045454547 227:0 228:0 229:0 230:0 231:0 232:0 233:0 234:0 235:0 236:0 237:0 238:0 239:0 240:0 241:0 242:0 243:0.045454547 244:0 245:0 246:0 247:0 248:0 249:0 
0.0001 0:0.0090090092 1:0.0045045046 2:0 3:0 4:0 5:0 6:0.0045045046 7:0.0090090092 8:0 9:0 10:0.0045045046 11:0.0045045046 12:0.0090090092 13:0 14:0.013513514 15:0 16:0 17:0.0045045046 18:0.013513514 19:0.0045045046 20:0.0090090092 21:0 22:0 23:0 24:0 25:0 26:0 27:0 28:0.013513514 29:0 30:0 31:0.0045045046 32:0.0045045046 33:0.013513514 34:0.0045045046 35:0 36:0 37:0 38:0.0045045046 39:0 40:0.0045045046 41:0 42:0.013513514 43:0.0090090092 44:0 45:0 46:0.0090090092 47:0 48:0.0045045046 49:0.0045045046 50:0 51:0.0045045046 52:0.022522524 53:0 54:0.0045045046 55:0.0045045046 56:0 57:0 58:0 59:0.0090090092 60:0 61:0.0090090092 62:0.018018018 63:0 64:0.0045045046 65:0 66:0.013513514 67:0 68:0 69:0.0045045046 70:0.027027028 71:0 72:0.0045045046 73:0.018018018 74:0.0090090092 75:0 76:0.0045045046 77:0.0090090092 78:0 79:0 80:0 81:0.0090090092 82:0 83:0.0045045046 84:0.013513514 85:0.0045045046 86:0 87:0.013513514 88:0 89:0.0090090092 90:0.027027028 91:0.0045045046 92:0 93:0.0090090092 94:0.0045045046 95:0.0045045046 96:0 97:0.0090090092 98:0 99:0 100:0.0045045046 101:0 102:0.0045045046 103:0.0045045046 104:0.0045045046 105:0 106:0 107:0.0045045046 108:0.0090090092 109:0 110:0 111:0 112:0 113:0 114:0 115:0 116:0.0045045046 117:0.0090090092 118:0 119:0.0090090092 120:0 121:0 122:0 123:0.0090090092 124:0.013513514 125:0 126:0 127:0 128:0 129:0.0045045046 130:0.0045045046 131:0 132:0.0090090092 133:0.0090090092 134:0 135:0.0045045046 136:0.0045045046 137:0.0045045046 138:0 139:0.0090090092 140:0.0090090092 141:0 142:0.0045045046 143:0.0045045046 144:0 145:0.0045045046 146:0 147:0.0045045046 148:0.0045045046 149:0.018018018 150:0.0090090092 151:0 152:0 153:0.0090090092 154:0 155:0.0045045046 156:0 157:0 158:0 159:0 160:0 161:0 162:0.0045045046 163:0.018018018 164:0.0045045046 165:0.0045045046 166:0.0045045046 167:0.0045045046 168:0.0090090092 169:0.0090090092 170:0 171:0 172:0 173:0 174:0 175:0 176:0.0045045046 177:0 178:0.036036037 179:0 180:0 181:0.0045045046 182:0 183:0.0045045046 184:0.018018018 185:0 186:0.0045045046 187:0 188:0 189:0.0090090092 190:0.0045045046 191:0.0045045046 192:0.0045045046 193:0.0045045046 194:0 195:0 196:0.0090090092 197:0 198:0 199:0 200:0 201:0 202:0 203:0.0045045046 204:0 205:0 206:0.0090090092 207:0.0045045046 208:0.0045045046 209:0 210:0 211:0.0045045046 212:0.0090090092 213:0 214:0 215:0 216:0.0045045046 217:0 218:0 219:0.0090090092 220:0.0090090092 221:0 222:0.027027028 223:0 224:0.0045045046 225:0 226:0 227:0.0045045046 228:0 229:0 230:0 231:0.018018018 232:0.0090090092 233:0 234:0.0045045046 235:0 236:0 237:0 238:0 239:0 240:0 241:0 242:0.0045045046 243:0 244:0 245:0 246:0.0090090092 247:0 248:0.027027028 249:0.0090090092 
0.0001 0:0 1:0.0078740157 2:0.015748031 3:0 4:0.023622047 5:0 6:0 7:0.015748031 8:0 9:0.0078740157 10:0 11:0 12:0 13:0 14:0 15:0 16:0 17:0 18:0 19:0.0078740157 20:0 21:0.0078740157 22:0.039370079 23:0 24:0 25:0 26:0 27:0 28:0.039370079 29:0 30:0 31:0.0078740157 32:0.015748031 33:0 34:0 35:0 36:0 37:0 38:0.023622047 39:0 40:0 41:0.0078740157 42:0.0078740157 43:0 44:0.0078740157 45:0 46:0 47:0 48:0 49:0 50:0 51:0 52:0.0078740157 53:0 54:0 55:0 56:0.0078740157 57:0 58:0.0078740157 59:0 60:0 61:0 62:0 63:0 64:0.023622047 65:0 66:0 67:0 68:0 69:0 70:0.047244094 71:0 72:0 73:0 74:0.015748031 75:0 76:0 77:0 78:0 79:0 80:0 81:0 82:0.0078740157 83:0.0078740157 84:0.0078740157 85:0 86:0 87:0.015748031 88:0 89:0 90:0.015748031 91:0.0078740157 92:0.0078740157 93:0 94:0 95:0 96:0 97:0 98:0 99:0 100:0 101:0 102:0 103:0 104:0.015748031 105:0.0078740157 106:0.0078740157 107:0 108:0.0078740157 109:0 110:0 111:0.0078740157 112:0 113:0.0078740157 114:0.023622047 115:0 116:0 117:0 118:0 119:0 120:0 121:0 122:0.0078740157 123:0.0078740157 124:0 125:0 126:0 127:0 128:0.0078740157 129:0 130:0.0078740157 131:0 132:0.11811024 133:0 134:0 135:0.0078740157 136:0 137:0 138:0 139:0 140:0 141:0 142:0 143:0 144:0 145:0 146:0 147:0.0078740157 148:0 149:0.0078740157 150:0 151:0 152:0 153:0 154:0.0078740157 155:0 156:0 157:0 158:0 159:0.015748031 160:0.0078740157 161:0 162:0 163:0.031496063 164:0.0078740157 165:0 166:0 167:0.0078740157 168:0 169:0 170:0 171:0 172:0 173:0 174:0.023622047 175:0 176:0 177:0 178:0.015748031 179:0 180:0 181:0 182:0 183:0 184:0 185:0 186:0.0078740157 187:0.0078740157 188:0 189:0 190:0.015748031 191:0 192:0 193:0 194:0 195:0 196:0 197:0 198:0 199:0.0078740157 200:0 201:0 202:0.0078740157 203:0.0078740157 204:0 205:0.0078740157 206:0 207:0 208:0 209:0.0078740157 210:0.015748031 211:0.0078740157 212:0 213:0 214:0 215:0 216:0 217:0 218:0.0078740157 219:0.0078740157 220:0.0078740157 221:0.015748031 222:0 223:0 224:0.015748031 225:0 226:0 227:0 228:0 229:0 230:0.0078740157 231:0.0078740157 232:0 233:0.0078740157 234:0.0078740157 235:0 236:0 237:0 238:0 239:0 240:0.0078740157 241:0 242:0 243:0.0078740157 244:0 245:0 246:0.015748031 247:0 248:0 249:0 
0.0001 0:0.001572327 1:0 2:0.0078616347 3:0.003144654 4:0 5:0.001572327 6:0.0047169812 7:0.001572327 8:0.001572327 9:0.001572327 10:0 11:0.15566038 12:0.0078616347 13:0.022012578 14:0.001572327 15:0.003144654 16:0 17:0.015723269 18:0 19:0.003144654 20:0.006289308 21:0.001572327 22:0.011006289 23:0.0078616347 24:0.017295597 25:0.001572327 26:0.012578616 27:0.001572327 28:0 29:0.001572327 30:0.001572327 31:0.0047169812 32:0.003144654 33:0.0047169812 34:0 35:0 36:0.001572327 37:0.001572327 38:0.006289308 39:0.0047169812 40:0.006289308 41:0.001572327 42:0.001572327 43:0.001572327 44:0.006289308 45:0.012578616 46:0 47:0 48:0 49:0 50:0.003144654 51:0.0078616347 52:0 53:0.001572327 54:0.0094339624 55:0.001572327 56:0.001572327 57:0.001572327 58:0.003144654 59:0 60:0.001572327 61:0.001572327 62:0.0094339624 63:0.001572327 64:0.018867925 65:0.0047169812 66:0 67:0.001572327 68:0.001572327 69:0.003144654 70:0 71:0 72:0.001572327 73:0.006289308 74:0 75:0.001572327 76:0.001572327 77:0.001572327 78:0 79:0 80:0.001572327 81:0 82:0.001572327 83:0 84:0.012578616 85:0.001572327 86:0.014150943 87:0.0047169812 88:0.031446539 89:0.0078616347 90:0 91:0 92:0.001572327 93:0.001572327 94:0.001572327 95:0.003144654 96:0 97:0.001572327 98:0.003144654 99:0.001572327 100:0.001572327 101:0.001572327 102:0.006289308 103:0.003144654 104:0.001572327 105:0.001572327 106:0 107:0.001572327 108:0 109:0 110:0.006289308 111:0.006289308 112:0.0047169812 113:0.001572327 114:0.001572327 115:0.0047169812 116:0 117:0 118:0 119:0.001572327 120:0.0047169812 121:0 122:0.001572327 123:0.001572327 124:0 125:0.003144654 126:0.001572327 127:0 128:0 129:0.003144654 130:0.014150943 131:0 132:0.003144654 133:0 134:0.003144654 135:0.001572327 136:0 137:0.001572327 138:0 139:0.001572327 140:0 141:0.003144654 142:0.0078616347 143:0.001572327 144:0 145:0.006289308 146:0.001572327 147:0.0094339624 148:0 149:0.001572327 150:0.014150943 151:0.0094339624 152:0.001572327 153:0.003144654 154:0.0094339624 155:0.001572327 156:0 157:0.003144654 158:0 159:0.001572327 160:0.0047169812 161:0 162:0.001572327 163:0.001572327 164:0 165:0.003144654 166:0 167:0.014150943 168:0.006289308 169:0.0047169812 170:0 171:0 172:0.001572327 173:0.001572327 174:0 175:0.001572327 176:0 177:0 178:0 179:0.0047169812 180:0 181:0 182:0.003144654 183:0.001572327 184:0 185:0.003144654 186:0.0078616347 187:0.003144654 188:0.0047169812 189:0.003144654 190:0 191:0.001572327 192:0.001572327 193:0.006289308 194:0.003144654 195:0.006289308 196:0.001572327 197:0 198:0.0047169812 199:0.0047169812 200:0.0078616347 201:0 202:0 203:0 204:0 205:0 206:0 207:0 208:0.001572327 209:0 210:0.001572327 211:0 212:0.0047169812 213:0 214:0 215:0 216:0.003144654 217:0 218:0.003144654 219:0.001572327 220:0.001572327 221:0.003144654 222:0.001572327 223:0.1226415 224:0.001572327 225:0.003144654 226:0.006289308 227:0.001572327 228:0.001572327 229:0 230:0.001572327 231:0.0078616347 232:0.001572327 233:0 234:0 235:0 236:0.001572327 237:0 238:0 239:0.0047169812 240:0.003144654 241:0 242:0 243:0 244:0.006289308 245:0.001572327 246:0.0078616347 247:0.001572327 248:0.003144654 249:0.001572327 
0.0001 0:0 1:0.015 2:0 3:0 4:0.0099999998 5:0 6:0 7:0.0049999999 8:0 9:0 10:0 11:0 12:0.0049999999 13:0 14:0 15:0 16:0 17:0.0049999999 18:0.035 19:0 20:0 21:0.0049999999 22:0.02 23:0 24:0.0099999998 25:0.0049999999 26:0 27:0.0049999999 28:0.0099999998 29:0.0049999999 30:0 31:0 32:0.02 33:0 34:0.0049999999 35:0.02 36:0.02 37:0 38:0.0099999998 39:0 40:0 41:0 42:0.0049999999 43:0 44:0.0049999999 45:0 46:0 47:0 48:0 49:0 50:0 51:0.0099999998 52:0.02 53:0.0049999999 54:0 55:0 56:0 57:0 58:0 59:0 60:0 61:0 62:0 63:0.0099999998 64:0.024999999 65:0.0049999999 66:0 67:0 68:0 69:0.0049999999 70:0.0099999998 71:0 72:0.0099999998 73:0.015 74:0.0049999999 75:0 76:0 77:0 78:0 79:0.0049999999 80:0 81:0.0049999999 82:0 83:0 84:0.015 85:0 86:0.02 87:0.024999999 88:0.0049999999 89:0.0049999999 90:0 91:0.015 92:0 93:0 94:0 95:0 96:0 97:0 98:0 99:0.0049999999 100:0 101:0.0049999999 102:0 103:0 104:0.0099999998 105:0 106:0.0049999999 107:0.0099999998 108:0.0099999998 109:0.0099999998 110:0.0049999999 111:0 112:0 113:0 114:0 115:0 116:0 117:0 118:0 119:0.0049999999 120:0.0099999998 121:0.0099999998 122:0 123:0 124:0 125:0 126:0.029999999 127:0.0049999999 128:0.0049999999 129:0 130:0 131:0 132:0 133:0.0099999998 134:0 135:0 136:0 137:0 138:0 139:0.0049999999 140:0 141:0 142:0 143:0 144:0 145:0 146:0 147:0.055 148:0 149:0 150:0.0049999999 151:0 152:0.029999999 153:0 154:0.0099999998 155:0 156:0 157:0 158:0 159:0 160:0 161:0.0049999999 162:0 163:0.015 164:0 165:0.0049999999 166:0 167:0.029999999 168:0 169:0 170:0 171:0 172:0 173:0 174:0 175:0 176:0 177:0.0049999999 178:0.035 179:0 180:0.0049999999 181:0 182:0 183:0 184:0.035 185:0.0049999999 186:0 187:0 188:0 189:0.0049999999 190:0 191:0 192:0 193:0.0049999999 194:0 195:0 196:0 197:0 198:0 199:0 200:0 201:0.0049999999 202:0 203:0.0049999999 204:0 205:0 206:0 207:0 208:0.0049999999 209:0 210:0.035 211:0.0099999998 212:0.015 213:0 214:0 215:0 216:0 217:0 218:0.0049999999 219:0.0099999998 220:0.015 221:0 222:0.02 223:0 224:0 225:0.0049999999 226:0 227:0 228:0 229:0 230:0.0049999999 231:0.015 232:0 233:0 234:0 235:0 236:0 237:0 238:0 239:0 240:0 241:0 242:0 243:0.0049999999 244:0 245:0.0049999999 246:0 247:0 248:0.015 249:0 
0.0001 0:0.0066006603 1:0 2:0.0033003301 3:0.0033003301 4:0 5:0 6:0 7:0.0066006603 8:0.0066006603 9:0.0066006603 10:0 11:0.0066006603 12:0 13:0 14:0.0033003301 15:0.0033003301 16:0.0066006603 17:0.0033003301 18:0.0099009909 19:0.0066006603 20:0.0033003301 21:0.0066006603 22:0.019801982 23:0.0033003301 24:0.0066006603 25:0 26:0 27:0.0033003301 28:0.0033003301 29:0.0033003301 30:0.0099009909 31:0 32:0.0033003301 33:0.0033003301 34:0 35:0.0033003301 36:0.01650165 37:0 38:0.0033003301 39:0 40:0.0066006603 41:0 42:0.013201321 43:0.0099009909 44:0.0099009909 45:0 46:0 47:0 48:0 49:0.0066006603 50:0 51:0 52:0 53:0.0033003301 54:0.013201321 55:0 56:0 57:0 58:0 59:0.01650165 60:0 61:0.01650165 62:0 63:0.0033003301 64:0.0033003301 65:0 66:0 67:0.0033003301 68:0 69:0 70:0.0066006603 71:0.0033003301 72:0 73:0.019801982 74:0 75:0.0099009909 76:0.0033003301 77:0.0066006603 78:0 79:0 80:0.0033003301 81:0.0066006603 82:0.0066006603 83:0.0066006603 84:0.0099009909 85:0.0066006603 86:0.0066006603 87:0.0033003301 88:0.0033003301 89:0.0033003301 90:0 91:0.0033003301 92:0 93:0.0099009909 94:0 95:0.013201321 96:0.0099009909 97:0.0033003301 98:0.0033003301 99:0.0099009909 100:0.0033003301 101:0.0066006603 102:0 103:0.0066006603 104:0 105:0 106:0.0033003301 107:0 108:0.0033003301 109:0 110:0.0099009909 111:0.01650165 112:0 113:0.0033003301 114:0.0033003301 115:0.0033003301 116:0.0066006603 117:0.0033003301 118:0.0066006603 119:0.0099009909 120:0.0099009909 121:0.0066006603 122:0.0033003301 123:0.0033003301 124:0.0033003301 125:0 126:0.0033003301 127:0 128:0.0066006603 129:0.0033003301 130:0 131:0.0066006603 132:0.0066006603 133:0.0033003301 134:0 135:0.0033003301 136:0.0033003301 137:0.0033003301 138:0 139:0.0066006603 140:0.013201321 141:0 142:0.0033003301 143:0 144:0.0033003301 145:0.0033003301 146:0 147:0.029702971 148:0 149:0.0099009909 150:0 151:0 152:0.0099009909 153:0.0066006603 154:0.0099009909 155:0 156:0 157:0.0033003301 158:0 159:0.0033003301 160:0 161:0 162:0 163:0 164:0.0066006603 165:0 166:0 167:0 168:0.0033003301 169:0.013201321 170:0 171:0.0033003301 172:0 173:0 174:0 175:0 176:0.0066006603 177:0.023102311 178:0 179:0 180:0.0033003301 181:0.019801982 182:0 183:0 184:0 185:0 186:0 187:0 188:0 189:0.0033003301 190:0 191:0 192:0.0033003301 193:0 194:0.0066006603 195:0.0033003301 196:0.0099009909 197:0 198:0 199:0.0066006603 200:0.0033003301 201:0.0033003301 202:0 203:0.0066006603 204:0 205:0.0066006603 206:0 207:0 208:0.0033003301 209:0.01650165 210:0.0033003301 211:0.0033003301 212:0.0066006603 213:0 214:0 215:0.0066006603 216:0.0099009909 217:0.0033003301 218:0 219:0.013201321 220:0.0066006603 221:0.0033003301 222:0 223:0.0066006603 224:0.0033003301 225:0 226:0.0099009909 227:0.0099009909 228:0 229:0 230:0.0033003301 231:0.0066006603 232:0.0033003301 233:0.013201321 234:0.0033003301 235:0 236:0.0066006603 237:0 238:0.0066006603 239:0 240:0.0033003301 241:0 242:0 243:0.0033003301 244:0.0066006603 245:0.0099009909 246:0.0033003301 247:0 248:0.013201321 249:0 
0.0001 0:0 1:0 2:0 3:0 4:0.0074074073 5:0 6:0 7:0.0074074073 8:0 9:0 10:0 11:0 12:0 13:0 14:0.0074074073 15:0.022222221 16:0 17:0 18:0 19:0 20:0 21:0 22:0.014814815 23:0 24:0.0074074073 25:0 26:0 27:0 28:0.059259258 29:0 30:0 31:0 32:0 33:0.014814815 34:0 35:0.037037037 36:0 37:0 38:0 39:0 40:0 41:0.0074074073 42:0.1037037 43:0 44:0.0074074073 45:0 46:0.014814815 47:0 48:0 49:0 50:0 51:0 52:0.014814815 53:0 54:0 55:0 56:0.014814815 57:0.0074074073 58:0.0074074073 59:0.0074074073 60:0 61:0.0074074073 62:0 63:0 64:0 65:0.0074074073 66:0 67:0 68:0 69:0 70:0.044444442 71:0 72:0.0074074073 73:0 74:0 75:0.0074074073 76:0 77:0 78:0 79:0 80:0 81:0.014814815 82:0 83:0 84:0 85:0 86:0 87:0 88:0 89:0 90:0.0074074073 91:0 92:0.0074074073 93:0 94:0 95:0.0074074073 96:0 97:0.014814815 98:0 99:0 100:0 101:0 102:0 103:0 104:0.0074074073 105:0 106:0.014814815 107:0.0074074073 108:0 109:0 110:0 111:0 112:0 113:0 114:0 115:0 116:0 117:0 118:0.0074074073 119:0 120:0 121:0 122:0 123:0.022222221 124:0.0074074073 125:0 126:0 127:0.014814815 128:0.029629629 129:0 130:0 131:0.014814815 132:0 133:0.0074074073 134:0 135:0 136:0 137:0 138:0.029629629 139:0.014814815 140:0 141:0 142:0 143:0.014814815 144:0 145:0 146:0 147:0.0074074073 148:0 149:0 150:0.0074074073 151:0 152:0 153:0 154:0 155:0 156:0 157:0 158:0.0074074073 159:0.0074074073 160:0.014814815 161:0 162:0.029629629 163:0.014814815 164:0 165:0 166:0 167:0.014814815 168:0 169:0 170:0.0074074073 171:0 172:0.0074074073 173:0 174:0 175:0 176:0.0074074073 177:0.0074074073 178:0.014814815 179:0 180:0.0074074073 181:0 182:0 183:0 184:0.014814815 185:0 186:0 187:0 188:0 189:0 190:0 191:0 192:0 193:0 194:0 195:0 196:0 197:0 198:0 199:0.0074074073 200:0.037037037 201:0 202:0 203:0 204:0 205:0 206:0 207:0 208:0 209:0 210:0.0074074073 211:0.0074074073 212:0.0074074073 213:0 214:0.0074074073 215:0.0074074073 216:0 217:0 218:0.0074074073 219:0.0074074073 220:0 221:0 222:0 223:0 224:0 225:0 226:0 227:0 228:0.0074074073 229:0 230:0 231:0.0074074073 232:0 233:0.029629629 234:0 235:0 236:0 237:0 238:0 239:0 240:0.0074074073 241:0 242:0 243:0 244:0 245:0 246:0 247:0 248:0 249:0 
0.0001 0:0 1:0 2:0 3:0 4:0 5:0 6:0 7:0.0125 8:0 9:0 10:0 11:0 12:0 13:0 14:0 15:0.025 16:0.0125 17:0 18:0 19:0 20:0 21:0.0125 22:0 23:0 24:0 25:0 26:0 27:0 28:0.1125 29:0 30:0 31:0.0125 32:0 33:0.0125 34:0.0125 35:0 36:0 37:0 38:0 39:0 40:0 41:0 42:0.050000001 43:0 44:0 45:0 46:0 47:0 48:0 49:0 50:0 51:0 52:0.0125 53:0 54:0 55:0 56:0.0125 57:0 58:0.0125 59:0.0125 60:0 61:0 62:0.0125 63:0 64:0.025 65:0 66:0.0125 67:0.025 68:0.0125 69:0 70:0.050000001 71:0 72:0 73:0 74:0.037500001 75:0 76:0 77:0 78:0 79:0 80:0 81:0.037500001 82:0.025 83:0 84:0 85:0 86:0 87:0 88:0 89:0 90:0 91:0 92:0 93:0 94:0.0125 95:0 96:0 97:0 98:0.025 99:0 100:0 101:0 102:0 103:0 104:0 105:0 106:0 107:0 108:0 109:0 110:0 111:0 112:0 113:0 114:0 115:0 116:0 117:0 118:0.0125 119:0 120:0.0125 121:0 122:0 123:0 124:0.050000001 125:0 126:0.0125 127:0 128:0.0125 129:0 130:0.0125 131:0.0125 132:0 133:0 134:0 135:0 136:0 137:0 138:0 139:0.0125 140:0 141:0 142:0 143:0.0125 144:0 145:0 146:0.0125 147:0 148:0 149:0.037500001 150:0 151:0 152:0 153:0 154:0.0125 155:0 156:0 157:0 158:0 159:0.0125 160:0 161:0 162:0 163:0.0125 164:0 165:0 166:0 167:0.0625 168:0 169:0 170:0 171:0.0125 172:0 173:0 174:0 175:0 176:0 177:0 178:0.0125 179:0 180:0 181:0.0125 182:0 183:0 184:0 185:0 186:0.0125 187:0 188:0 189:0 190:0 191:0 192:0 193:0 194:0 195:0 196:0 197:0 198:0 199:0 200:0 201:0 202:0 203:0 204:0 205:0 206:0 207:0 208:0 209:0 210:0.0125 211:0 212:0 213:0 214:0 215:0 216:0 217:0 218:0 219:0 220:0 221:0 222:0 223:0 224:0 225:0.0125 226:0 227:0 228:0 229:0 230:0.0125 231:0.0125 232:0 233:0 234:0 235:0 236:0 237:0 238:0 239:0 240:0 241:0 242:0 243:0 244:0 245:0 246:0 247:0 248:0 249:0.0125 
0.0001 0:0.0023980816 1:0 2:0.0023980816 3:0 4:0.0071942448 5:0 6:0 7:0.0023980816 8:0 9:0.0071942448 10:0 11:0.0023980816 12:0.0023980816 13:0.0047961632 14:0.0023980816 15:0.0023980816 16:0.0047961632 17:0.0047961632 18:0.0047961632 19:0.0023980816 20:0.0047961632 21:0.0071942448 22:0.01438849 23:0.0071942448 24:0.0047961632 25:0 26:0 27:0.0071942448 28:0.026378898 29:0.0023980816 30:0.0023980816 31:0 32:0.0071942448 33:0.0047961632 34:0.0023980816 35:0 36:0.0047961632 37:0.0047961632 38:0.0047961632 39:0.0095923264 40:0.0047961632 41:0.0023980816 42:0.0071942448 43:0 44:0.0023980816 45:0 46:0 47:0.0095923264 48:0.0023980816 49:0.0023980816 50:0 51:0 52:0 53:0.0023980816 54:0.0047961632 55:0.0023980816 56:0.0023980816 57:0.0071942448 58:0.0023980816 59:0.0095923264 60:0.0023980816 61:0 62:0.0071942448 63:0.0047961632 64:0.0023980816 65:0.0023980816 66:0.0071942448 67:0.0023980816 68:0.0095923264 69:0 70:0.0047961632 71:0.0023980816 72:0.0023980816 73:0.011990407 74:0 75:0.0023980816 76:0.0071942448 77:0 78:0.0047961632 79:0.0023980816 80:0.0071942448 81:0.0023980816 82:0.0047961632 83:0 84:0 85:0.0047961632 86:0.0095923264 87:0 88:0.0095923264 89:0.0023980816 90:0.0047961632 91:0.0095923264 92:0 93:0.0047961632 94:0.0071942448 95:0.0047961632 96:0.0071942448 97:0.0023980816 98:0.0071942448 99:0 100:0.0047961632 101:0.0071942448 102:0 103:0.0047961632 104:0 105:0.0023980816 106:0.0023980816 107:0.0095923264 108:0.0023980816 109:0.0023980816 110:0.0071942448 111:0 112:0 113:0.0023980816 114:0.0023980816 115:0 116:0.011990407 117:0 118:0.0047961632 119:0.0047961632 120:0.0047961632 121:0 122:0.0023980816 123:0.0095923264 124:0.0023980816 125:0 126:0.0023980816 127:0.0047961632 128:0.0047961632 129:0.0095923264 130:0.0071942448 131:0.0023980816 132:0.011990407 133:0.0047961632 134:0.0047961632 135:0.0071942448 136:0.0047961632 137:0.0047961632 138:0.0023980816 139:0.011990407 140:0.01438849 141:0.0047961632 142:0 143:0.0023980816 144:0.0023980816 145:0.0071942448 146:0.0047961632 147:0.011990407 148:0 149:0.016786572 150:0.0071942448 151:0.0023980816 152:0 153:0.0023980816 154:0.0047961632 155:0.0071942448 156:0.0023980816 157:0 158:0.0047961632 159:0.0047961632 160:0.0071942448 161:0.0023980816 162:0 163:0.0047961632 164:0 165:0 166:0 167:0.0023980816 168:0.0071942448 169:0.011990407 170:0.0023980816 171:0.0023980816 172:0.0071942448 173:0.0095923264 174:0.0071942448 175:0.0023980816 176:0.0047961632 177:0.0071942448 178:0.011990407 179:0 180:0.0095923264 181:0 182:0.0023980816 183:0 184:0.0095923264 185:0 186:0.0047961632 187:0.0047961632 188:0 189:0.0023980816 190:0.0023980816 191:0.0047961632 192:0.0023980816 193:0.0023980816 194:0.0023980816 195:0.0023980816 196:0.0023980816 197:0.0047961632 198:0 199:0.0047961632 200:0.0047961632 201:0.0095923264 202:0.0023980816 203:0.0047961632 204:0.0095923264 205:0.0047961632 206:0 207:0 208:0.0071942448 209:0.0047961632 210:0.0071942448 211:0.0023980816 212:0.0047961632 213:0 214:0 215:0.0023980816 216:0.0023980816 217:0.0023980816 218:0.0023980816 219:0.0047961632 220:0.0023980816 221:0.0023980816 222:0.0047961632 223:0.021582734 224:0.0023980816 225:0 226:0.0023980816 227:0.0023980816 228:0 229:0 230:0.0047961632 231:0.0023980816 232:0 233:0.0047961632 234:0.0023980816 235:0 236:0.0023980816 237:0.0023980816 238:0.0023980816 239:0.0047961632 240:0.0047961632 241:0.0023980816 242:0.0023980816 243:0.0071942448 244:0.0071942448 245:0.0023980816 246:0.0047961632 247:0.0023980816 248:0.0023980816 249:0 
0.0001 0:0 1:0.0051413882 2:0.0025706941 3:0 4:0 5:0 6:0.023136247 7:0.0025706941 8:0.010282776 9:0 10:0.0051413882 11:0 12:0 13:0 14:0 15:0.0025706941 16:0 17:0 18:0.007712082 19:0.0051413882 20:0 21:0.0051413882 22:0.0025706941 23:0 24:0.0025706941 25:0 26:0.0025706941 27:0.007712082 28:0.0025706941 29:0 30:0 31:0.0051413882 32:0.0025706941 33:0.0025706941 34:0.0025706941 35:0 36:0 37:0 38:0.0025706941 39:0.0025706941 40:0 41:0 42:0 43:0.0025706941 44:0.0025706941 45:0 46:0.0025706941 47:0 48:0 49:0 50:0.0025706941 51:0.012853471 52:0 53:0.0025706941 54:0.0051413882 55:0 56:0.0025706941 57:0.0051413882 58:0 59:0.007712082 60:0 61:0.0025706941 62:0.0025706941 63:0 64:0 65:0 66:0.0025706941 67:0 68:0 69:0.0051413882 70:0 71:0.012853471 72:0.0025706941 73:0.0025706941 74:0 75:0.0025706941 76:0 77:0.0025706941 78:0.0025706941 79:0.0051413882 80:0 81:0 82:0.0025706941 83:0.007712082 84:0.012853471 85:0.010282776 86:0 87:0 88:0 89:0.051413883 90:0.012853471 91:0.015424164 92:0 93:0.007712082 94:0 95:0.007712082 96:0 97:0 98:0.0025706941 99:0.0025706941 100:0.0025706941 101:0 102:0.0025706941 103:0.0025706941 104:0.015424164 105:0.0051413882 106:0 107:0.0025706941 108:0.0025706941 109:0 110:0 111:0 112:0.0025706941 113:0.007712082 114:0.0025706941 115:0.0051413882 116:0.0051413882 117:0.0051413882 118:0 119:0.007712082 120:0.0025706941 121:0.0051413882 122:0.0025706941 123:0.0025706941 124:0 125:0.056555271 126:0 127:0 128:0 129:0 130:0 131:0 132:0 133:0 134:0.0025706941 135:0.007712082 136:0 137:0.0025706941 138:0 139:0.0051413882 140:0.0025706941 141:0.0051413882 142:0.0051413882 143:0.0025706941 144:0.0025706941 145:0 146:0.0025706941 147:0.056555271 148:0.0051413882 149:0 150:0.0025706941 151:0.0025706941 152:0.038560413 153:0 154:0 155:0 156:0.0025706941 157:0.0051413882 158:0 159:0 160:0.0025706941 161:0.0051413882 162:0.028277636 163:0.0025706941 164:0.0025706941 165:0 166:0.010282776 167:0 168:0.0025706941 169:0.007712082 170:0 171:0 172:0 173:0 174:0 175:0.0051413882 176:0.012853471 177:0.0051413882 178:0 179:0.025706941 180:0 181:0 182:0.0025706941 183:0 184:0 185:0 186:0.0051413882 187:0 188:0.0025706941 189:0.025706941 190:0.0025706941 191:0 192:0 193:0 194:0.0051413882 195:0 196:0.0051413882 197:0 198:0 199:0 200:0.007712082 201:0 202:0 203:0.0025706941 204:0.017994858 205:0 206:0.030848328 207:0 208:0.0051413882 209:0.0025706941 210:0 211:0.010282776 212:0.0025706941 213:0 214:0.0051413882 215:0.0025706941 216:0.025706941 217:0.0051413882 218:0.0025706941 219:0.010282776 220:0.010282776 221:0 222:0 223:0 224:0 225:0.007712082 226:0 227:0 228:0.012853471 229:0 230:0 231:0.007712082 232:0 233:0 234:0.007712082 235:0 236:0.0051413882 237:0.007712082 238:0.0025706941 239:0 240:0.0025706941 241:0 242:0.0051413882 243:0.0025706941 244:0.0051413882 245:0 246:0 247:0.012853471 248:0 249:0 
0.0001 0:0 1:0 2:0 3:0 4:0.0048780488 5:0 6:0.0048780488 7:0.014634146 8:0.0048780488 9:0 10:0 11:0.0048780488 12:0.0048780488 13:0 14:0 15:0.0048780488 16:0 17:0 18:0.0097560976 19:0.0048780488 20:0.0048780488 21:0.0048780488 22:0.0048780488 23:0 24:0.019512195 25:0.0048780488 26:0 27:0.0048780488 28:0.0097560976 29:0 30:0.0097560976 31:0 32:0 33:0 34:0.0048780488 35:0.014634146 36:0 37:0.0048780488 38:0.0048780488 39:0 40:0.0048780488 41:0 42:0.024390243 43:0 44:0.0048780488 45:0 46:0.0097560976 47:0.0048780488 48:0 49:0 50:0 51:0.014634146 52:0 53:0.0048780488 54:0.0048780488 55:0 56:0.0048780488 57:0.0097560976 58:0 59:0.014634146 60:0.0097560976 61:0.019512195 62:0 63:0.0048780488 64:0.0097560976 65:0.0048780488 66:0.0048780488 67:0 68:0.0048780488 69:0 70:0.0048780488 71:0 72:0 73:0.0097560976 74:0 75:0.019512195 76:0 77:0.0097560976 78:0 79:0 80:0 81:0.014634146 82:0.0097560976 83:0.0048780488 84:0.019512195 85:0 86:0.014634146 87:0 88:0 89:0.0048780488 90:0 91:0.0097560976 92:0 93:0.0097560976 94:0.0048780488 95:0.0097560976 96:0 97:0 98:0 99:0 100:0 101:0.0097560976 102:0.0048780488 103:0.0048780488 104:0.0048780488 105:0 106:0.0048780488 107:0.0048780488 108:0 109:0.0048780488 110:0 111:0 112:0.0048780488 113:0 114:0 115:0 116:0.0048780488 117:0 118:0 119:0.0097560976 120:0.0048780488 121:0.0048780488 122:0 123:0.014634146 124:0 125:0 126:0.0048780488 127:0 128:0 129:0 130:0 131:0.0097560976 132:0.019512195 133:0.0097560976 134:0.0048780488 135:0 136:0.0048780488 137:0 138:0.0048780488 139:0.0048780488 140:0 141:0.0097560976 142:0 143:0.0097560976 144:0.0048780488 145:0 146:0 147:0.0048780488 148:0.0048780488 149:0.014634146 150:0.0048780488 151:0.0048780488 152:0 153:0 154:0.0048780488 155:0 156:0 157:0 158:0.014634146 159:0.0048780488 160:0.0048780488 161:0 162:0.0097560976 163:0.0048780488 164:0.0097560976 165:0 166:0 167:0.024390243 168:0.0048780488 169:0 170:0 171:0.0048780488 172:0 173:0 174:0 175:0 176:0 177:0.019512195 178:0.0048780488 179:0 180:0.0097560976 181:0.0048780488 182:0 183:0.0048780488 184:0.0048780488 185:0 186:0 187:0 188:0.0048780488 189:0 190:0.0097560976 191:0.0048780488 192:0.0048780488 193:0.0048780488 194:0.0048780488 195:0 196:0 197:0 198:0.0097560976 199:0 200:0 201:0 202:0 203:0 204:0 205:0.014634146 206:0 207:0.0048780488 208:0.0048780488 209:0 210:0.0097560976 211:0.0048780488 212:0.0048780488 213:0 214:0 215:0 216:0 217:0 218:0 219:0 220:0.0097560976 221:0 222:0.014634146 223:0.0097560976 224:0 225:0.0048780488 226:0 227:0 228:0 229:0 230:0.0097560976 231:0.0048780488 232:0.014634146 233:0.014634146 234:0 235:0 236:0 237:0 238:0 239:0 240:0.0048780488 241:0.0048780488 242:0 243:0.0048780488 244:0.0048780488 245:0 246:0 247:0 248:0.0097560976 249:0 
0.0001 0:0 1:0 2:0 3:0 4:0 5:0 6:0 7:0 8:0 9:0 10:0 11:0 12:0 13:0 14:0 15:0 16:0 17:0 18:0 19:0 20:0 21:0 22:0 23:0 24:0 25:0 26:0 27:0 28:0 29:0 30:0 31:0 32:0 33:0 34:0 35:0 36:0 37:0 38:0 39:0 40:0 41:0 42:0 43:0 44:0 45:0 46:0 47:0 48:0 49:0 50:0 51:0 52:0 53:0 54:0 55:0 56:0 57:0 58:0 59:0 60:0 61:0 62:0 63:0 64:0 65:0 66:0 67:0 68:0 69:0 70:0 71:0 72:0 73:0 74:0 75:0 76:0 77:0 78:0 79:0 80:0 81:0 82:0 83:0 84:0 85:0 86:0 87:0 88:0 89:0 90:0 91:0 92:0 93:0 94:0 95:0 96:0 97:0 98:0 99:0 100:0 101:0 102:0 103:0 104:0 105:0 106:0 107:0 108:0 109:0 110:0 111:0 112:0 113:0 114:0 115:0 116:0 117:0 118:0 119:0 120:0 121:0 122:0 123:0 124:0 125:0 126:0 127:0 128:0 129:0 130:0 131:0 132:0 133:0 134:0 135:0 136:0 137:0 138:0 139:0 140:0 141:0 142:0 143:0 144:0.16666667 145:0 146:0 147:0 148:0 149:0 150:0 151:0 152:0 153:0 154:0 155:0 156:0 157:0 158:0 159:0 160:0 161:0 162:0.66666669 163:0 164:0 165:0 166:0 167:0 168:0 169:0 170:0 171:0 172:0 173:0 174:0 175:0 176:0 177:0 178:0.16666667 179:0 180:0 181:0 182:0 183:0 184:0 185:0 186:0 187:0 188:0 189:0 190:0 191:0 192:0 193:0 194:0 195:0 196:0 197:0 198:0 199:0 200:0 201:0 202:0 203:0 204:0 205:0 206:0 207:0 208:0 209:0 210:0 211:0 212:0 213:0 214:0 215:0 216:0 217:0 218:0 219:0 220:0 221:0 222:0 223:0 224:0 225:0 226:0 227:0 228:0 229:0 230:0 231:0 232:0 233:0 234:0 235:0 236:0 237:0 238:0 239:0 240:0 241:0 242:0 243:0 244:0 245:0 246:0 247:0 248:0 249:0 
0.0001 0:0.0073529412 1:0.0073529412 2:0.0036764706 3:0 4:0.0036764706 5:0 6:0.011029412 7:0 8:0 9:0.011029412 10:0.0073529412 11:0.0073529412 12:0 13:0 14:0 15:0.011029412 16:0 17:0 18:0.0073529412 19:0 20:0 21:0 22:0.014705882 23:0 24:0 25:0.0036764706 26:0.0073529412 27:0.0036764706 28:0.0073529412 29:0.0036764706 30:0.0036764706 31:0.0036764706 32:0.011029412 33:0.0036764706 34:0 35:0 36:0.0036764706 37:0.0036764706 38:0 39:0 40:0.0036764706 41:0.0036764706 42:0.0036764706 43:0 44:0.011029412 45:0.011029412 46:0.0036764706 47:0.0073529412 48:0.022058824 49:0 50:0 51:0.0036764706 52:0 53:0.0073529412 54:0 55:0.0073529412 56:0.0073529412 57:0.0036764706 58:0 59:0 60:0.018382354 61:0.0036764706 62:0.0073529412 63:0.011029412 64:0.0073529412 65:0.0036764706 66:0.0036764706 67:0 68:0.0073529412 69:0 70:0 71:0 72:0.0073529412 73:0.0073529412 74:0.0036764706 75:0 76:0.0073529412 77:0.0073529412 78:0.0036764706 79:0 80:0.0073529412 81:0 82:0 83:0 84:0.0073529412 85:0.0036764706 86:0.025735294 87:0 88:0 89:0.0036764706 90:0 91:0 92:0 93:0 94:0 95:0 96:0.0036764706 97:0.0036764706 98:0.0036764706 99:0.011029412 100:0 101:0 102:0.0036764706 103:0.0036764706 104:0 105:0.0073529412 106:0 107:0.0073529412 108:0 109:0 110:0.0073529412 111:0 112:0 113:0 114:0.0036764706 115:0 116:0 117:0.0036764706 118:0 119:0 120:0.0036764706 121:0 122:0 123:0 124:0 125:0.0036764706 126:0.0073529412 127:0 128:0.011029412 129:0.0036764706 130:0.0036764706 131:0 132:0 133:0 134:0 135:0 136:0 137:0.011029412 138:0 139:0.0036764706 140:0.0036764706 141:0 142:0.0036764706 143:0.0036764706 144:0 145:0 146:0 147:0.022058824 148:0 149:0 150:0.0073529412 151:0.0073529412 152:0.011029412 153:0.0036764706 154:0.0073529412 155:0 156:0.0036764706 157:0 158:0 159:0.0036764706 160:0 161:0.0036764706 162:0 163:0.022058824 164:0 165:0.0036764706 166:0.0036764706 167:0.040441178 168:0 169:0 170:0 171:0.0073529412 172:0.0036764706 173:0 174:0.0036764706 175:0 176:0 177:0 178:0.014705882 179:0.0073529412 180:0.0036764706 181:0.0073529412 182:0.0073529412 183:0 184:0.018382354 185:0.014705882 186:0.011029412 187:0 188:0 189:0.0036764706 190:0 191:0 192:0 193:0 194:0 195:0 196:0.0036764706 197:0 198:0.011029412 199:0.0073529412 200:0.014705882 201:0.0036764706 202:0 203:0 204:0.0073529412 205:0.0036764706 206:0.0036764706 207:0 208:0 209:0.011029412 210:0.033088237 211:0.0073529412 212:0 213:0.0036764706 214:0 215:0.011029412 216:0 217:0 218:0 219:0.0073529412 220:0.0036764706 221:0 222:0.011029412 223:0.0073529412 224:0 225:0.0036764706 226:0 227:0 228:0.0073529412 229:0.0073529412 230:0.0036764706 231:0.0073529412 232:0.0036764706 233:0 234:0 235:0 236:0 237:0 238:0 239:0.0036764706 240:0.011029412 241:0 242:0 243:0 244:0.0036764706 245:0.0036764706 246:0.022058824 247:0.0036764706 248:0.014705882 249:0.0036764706 
0.0001 0:0 1:0.0090497741 2:0 3:0 4:0.0045248871 5:0 6:0 7:0.0045248871 8:0.0045248871 9:0 10:0 11:0 12:0 13:0 14:0 15:0 16:0 17:0 18:0.0090497741 19:0.0045248871 20:0 21:0 22:0.0090497741 23:0.0045248871 24:0.0090497741 25:0 26:0 27:0 28:0.027149323 29:0 30:0.0045248871 31:0.0090497741 32:0.013574662 33:0 34:0.0090497741 35:0 36:0.0045248871 37:0.0090497741 38:0.0045248871 39:0 40:0 41:0 42:0.0045248871 43:0.0090497741 44:0.0045248871 45:0.0045248871 46:0.0045248871 47:0 48:0 49:0.0045248871 50:0.0045248871 51:0.0045248871 52:0.0045248871 53:0 54:0.0045248871 55:0 56:0.0045248871 57:0 58:0 59:0.018099548 60:0.0045248871 61:0.0045248871 62:0 63:0 64:0.0090497741 65:0 66:0.0090497741 67:0.013574662 68:0 69:0.013574662 70:0.022624435 71:0 72:0 73:0 74:0.013574662 75:0.013574662 76:0 77:0 78:0 79:0.0090497741 80:0 81:0.0090497741 82:0 83:0 84:0.0090497741 85:0 86:0.013574662 87:0.022624435 88:0.0090497741 89:0 90:0.0045248871 91:0.0045248871 92:0 93:0 94:0.0045248871 95:0 96:0.0045248871 97:0 98:0.0045248871 99:0 100:0.0045248871 101:0.0090497741 102:0 103:0 104:0.0045248871 105:0.0045248871 106:0 107:0.0045248871 108:0.013574662 109:0 110:0.0045248871 111:0 112:0 113:0 114:0.0045248871 115:0.0045248871 116:0 117:0.0045248871 118:0 119:0 120:0.0090497741 121:0 122:0 123:0 124:0.0090497741 125:0 126:0.0045248871 127:0.0045248871 128:0.027149323 129:0 130:0 131:0.0045248871 132:0.018099548 133:0.0090497741 134:0.013574662 135:0.0045248871 136:0 137:0 138:0 139:0 140:0.0090497741 141:0 142:0 143:0.018099548 144:0.0090497741 145:0 146:0.0045248871 147:0.018099548 148:0 149:0.0045248871 150:0 151:0 152:0.0045248871 153:0 154:0 155:0 156:0 157:0 158:0.0090497741 159:0 160:0.0045248871 161:0 162:0.013574662 163:0.013574662 164:0.0045248871 165:0 166:0.0045248871 167:0.0045248871 168:0 169:0 170:0.0045248871 171:0 172:0.0045248871 173:0 174:0 175:0 176:0 177:0.0045248871 178:0.0090497741 179:0 180:0 181:0 182:0 183:0.0090497741 184:0.018099548 185:0.0090497741 186:0 187:0 188:0 189:0 190:0 191:0 192:0 193:0.0045248871 194:0 195:0.0045248871 196:0 197:0.0090497741 198:0 199:0.0045248871 200:0 201:0 202:0 203:0 204:0 205:0.0045248871 206:0 207:0.0090497741 208:0.013574662 209:0.0045248871 210:0 211:0.0045248871 212:0.018099548 213:0 214:0.013574662 215:0.0045248871 216:0.0045248871 217:0.0045248871 218:0 219:0 220:0 221:0.0090497741 222:0 223:0.0045248871 224:0.0045248871 225:0 226:0.0045248871 227:0 228:0 229:0.013574662 230:0.0045248871 231:0 232:0.0045248871 233:0.04524887 234:0 235:0 236:0.013574662 237:0 238:0 239:0 240:0.0045248871 241:0.0045248871 242:0 243:0 244:0.0045248871 245:0.0045248871 246:0.0090497741 247:0 248:0 249:0.0090497741 
0.0001 0:0 1:0 2:0 3:0 4:0 5:0 6:0 7:0.010714286 8:0.032142859 9:0 10:0.0035714286 11:0 12:0.021428572 13:0 14:0.014285714 15:0 16:0 17:0 18:0.025 19:0.0071428572 20:0.010714286 21:0 22:0 23:0 24:0 25:0 26:0 27:0.0035714286 28:0 29:0 30:0.0035714286 31:0.021428572 32:0.017857144 33:0 34:0.010714286 35:0 36:0 37:0 38:0.032142859 39:0.0035714286 40:0 41:0 42:0 43:0 44:0 45:0 46:0.0035714286 47:0.0035714286 48:0 49:0.0035714286 50:0 51:0.028571429 52:0 53:0 54:0.0035714286 55:0.0035714286 56:0 57:0 58:0 59:0.0035714286 60:0 61:0 62:0.032142859 63:0.0035714286 64:0 65:0 66:0.017857144 67:0 68:0 69:0.042857144 70:0 71:0.0071428572 72:0 73:0.050000001 74:0 75:0 76:0.035714287 77:0 78:0 79:0.0035714286 80:0 81:0 82:0 83:0.0035714286 84:0.010714286 85:0.0035714286 86:0.0035714286 87:0 88:0 89:0.0035714286 90:0.025 91:0 92:0 93:0.0071428572 94:0 95:0 96:0 97:0 98:0 99:0.0035714286 100:0.0035714286 101:0 102:0 103:0 104:0.010714286 105:0 106:0 107:0.0035714286 108:0 109:0 110:0 111:0 112:0.032142859 113:0 114:0 115:0.0035714286 116:0 117:0.0035714286 118:0.0035714286 119:0.010714286 120:0 121:0 122:0.0035714286 123:0 124:0 125:0.014285714 126:0 127:0 128:0 129:0 130:0.032142859 131:0 132:0 133:0 134:0 135:0.0071428572 136:0.0035714286 137:0 138:0 139:0 140:0 141:0 142:0 143:0.0071428572 144:0 145:0 146:0.010714286 147:0.0035714286 148:0.010714286 149:0 150:0 151:0 152:0.0071428572 153:0.0035714286 154:0 155:0 156:0 157:0 158:0.0035714286 159:0 160:0 161:0.0035714286 162:0.025 163:0 164:0 165:0 166:0 167:0 168:0.039285716 169:0 170:0 171:0.0035714286 172:0 173:0 174:0 175:0.0071428572 176:0.0035714286 177:0 178:0.010714286 179:0.0035714286 180:0 181:0 182:0 183:0 184:0 185:0.0035714286 186:0.0035714286 187:0 188:0.0035714286 189:0 190:0.0035714286 191:0 192:0 193:0.0035714286 194:0.0035714286 195:0 196:0 197:0.0071428572 198:0 199:0 200:0 201:0 202:0 203:0.014285714 204:0 205:0 206:0.0035714286 207:0 208:0 209:0.0071428572 210:0 211:0 212:0 213:0 214:0.014285714 215:0 216:0.0035714286 217:0 218:0.0071428572 219:0.0035714286 220:0.0035714286 221:0.028571429 222:0 223:0.0035714286 224:0.0035714286 225:0.0071428572 226:0 227:0 228:0 229:0 230:0.0071428572 231:0.028571429 232:0.0035714286 233:0 234:0 235:0 236:0 237:0 238:0 239:0 240:0.0035714286 241:0 242:0.0035714286 243:0 244:0 245:0 246:0.021428572 247:0 248:0 249:0.0071428572 
0.0001 0:0.0074626864 1:0 2:0 3:0.0074626864 4:0 5:0 6:0 7:0 8:0 9:0 10:0 11:0 12:0 13:0 14:0 15:0 16:0.0074626864 17:0 18:0 19:0.014925373 20:0 21:0 22:0 23:0 24:0.02238806 25:0.0074626864 26:0 27:0 28:0 29:0.0074626864 30:0 31:0 32:0.02238806 33:0 34:0 35:0 36:0 37:0.014925373 38:0.014925373 39:0 40:0 41:0 42:0 43:0.0074626864 44:0.0074626864 45:0.0074626864 46:0.014925373 47:0 48:0 49:0 50:0 51:0 52:0.0074626864 53:0 54:0 55:0.0074626864 56:0.029850746 57:0 58:0.014925373 59:0 60:0 61:0.014925373 62:0 63:0.014925373 64:0 65:0.0074626864 66:0 67:0.0074626864 68:0.0074626864 69:0 70:0 71:0.0074626864 72:0 73:0.0074626864 74:0 75:0 76:0 77:0.0074626864 78:0 79:0 80:0.0074626864 81:0.0074626864 82:0 83:0 84:0 85:0 86:0.0074626864 87:0 88:0.014925373 89:0 90:0 91:0 92:0.014925373 93:0 94:0 95:0 96:0.0074626864 97:0 98:0 99:0.0074626864 100:0 101:0 102:0 103:0 104:0 105:0.0074626864 106:0.014925373 107:0.014925373 108:0.0074626864 109:0 110:0 111:0 112:0 113:0 114:0 115:0 116:0 117:0 118:0 119:0 120:0.0074626864 121:0 122:0 123:0.0074626864 124:0 125:0 126:0 127:0.0074626864 128:0 129:0.0074626864 130:0 131:0 132:0 133:0 134:0.0074626864 135:0 136:0.0074626864 137:0.0074626864 138:0.0074626864 139:0.014925373 140:0 141:0 142:0 143:0 144:0.029850746 145:0 146:0.0074626864 147:0 148:0 149:0.014925373 150:0 151:0.0074626864 152:0.044776119 153:0 154:0 155:0.0074626864 156:0 157:0 158:0 159:0.029850746 160:0 161:0.0074626864 162:0 163:0.0074626864 164:0 165:0 166:0 167:0.037313432 168:0 169:0 170:0.0074626864 171:0 172:0 173:0 174:0 175:0 176:0.0074626864 177:0.0074626864 178:0.0074626864 179:0 180:0.0074626864 181:0.0074626864 182:0 183:0 184:0.0074626864 185:0.02238806 186:0 187:0 188:0 189:0.0074626864 190:0.0074626864 191:0.0074626864 192:0.0074626864 193:0 194:0.014925373 195:0 196:0.0074626864 197:0 198:0.0074626864 199:0 200:0.0074626864 201:0 202:0 203:0 204:0 205:0.0074626864 206:0 207:0.0074626864 208:0 209:0 210:0.02238806 211:0 212:0.014925373 213:0 214:0 215:0 216:0 217:0.0074626864 218:0 219:0 220:0.0074626864 221:0 222:0.044776119 223:0 224:0 225:0 226:0 227:0.0074626864 228:0.0074626864 229:0 230:0 231:0 232:0.0074626864 233:0.0074626864 234:0.014925373 235:0 236:0.0074626864 237:0 238:0 239:0 240:0 241:0 242:0 243:0 244:0 245:0.0074626864 246:0.0074626864 247:0 248:0 249:0 
0.0001 0:0.0059523811 1:0.017857144 2:0.0059523811 3:0.0059523811 4:0.011904762 5:0.0059523811 6:0 7:0 8:0 9:0.0059523811 10:0.011904762 11:0 12:0 13:0 14:0 15:0 16:0 17:0 18:0 19:0.0059523811 20:0 21:0.0059523811 22:0 23:0 24:0.023809524 25:0 26:0 27:0 28:0.011904762 29:0.011904762 30:0.011904762 31:0 32:0.011904762 33:0.0059523811 34:0 35:0 36:0 37:0 38:0 39:0.011904762 40:0 41:0 42:0.0059523811 43:0.0059523811 44:0 45:0 46:0 47:0 48:0 49:0.0059523811 50:0 51:0.011904762 52:0.011904762 53:0 54:0 55:0.0059523811 56:0.011904762 57:0 58:0.011904762 59:0 60:0 61:0.0059523811 62:0 63:0 64:0.0059523811 65:0.0059523811 66:0.0059523811 67:0 68:0 69:0 70:0.029761905 71:0.011904762 72:0 73:0 74:0 75:0 76:0 77:0 78:0.0059523811 79:0 80:0.011904762 81:0 82:0 83:0 84:0.0059523811 85:0.0059523811 86:0 87:0 88:0 89:0 90:0.0059523811 91:0.011904762 92:0 93:0 94:0.011904762 95:0 96:0 97:0 98:0 99:0.0059523811 100:0.017857144 101:0 102:0 103:0 104:0.0059523811 105:0.0059523811 106:0.0059523811 107:0 108:0 109:0 110:0 111:0.0059523811 112:0 113:0.011904762 114:0 115:0 116:0 117:0.011904762 118:0.011904762 119:0 120:0 121:0 122:0.0059523811 123:0 124:0 125:0 126:0.041666668 127:0.017857144 128:0 129:0.0059523811 130:0 131:0.0059523811 132:0 133:0 134:0 135:0 136:0 137:0.0059523811 138:0.029761905 139:0.0059523811 140:0 141:0 142:0 143:0 144:0.023809524 145:0 146:0.0059523811 147:0 148:0 149:0 150:0 151:0.0059523811 152:0 153:0 154:0 155:0 156:0 157:0.0059523811 158:0 159:0.0059523811 160:0 161:0 162:0.0059523811 163:0 164:0 165:0 166:0.0059523811 167:0.035714287 168:0 169:0 170:0.0059523811 171:0 172:0 173:0 174:0.0059523811 175:0.0059523811 176:0.011904762 177:0.035714287 178:0.0059523811 179:0 180:0.0059523811 181:0 182:0 183:0 184:0.017857144 185:0 186:0.0059523811 187:0 188:0 189:0 190:0 191:0.0059523811 192:0.0059523811 193:0 194:0 195:0 196:0.0059523811 197:0.0059523811 198:0.017857144 199:0 200:0 201:0 202:0 203:0.011904762 204:0 205:0.0059523811 206:0 207:0.0059523811 208:0 209:0 210:0.017857144 211:0 212:0.0059523811 213:0 214:0.0059523811 215:0 216:0.0059523811 217:0 218:0 219:0.0059523811 220:0.0059523811 221:0.0059523811 222:0 223:0 224:0.0059523811 225:0 226:0.011904762 227:0 228:0 229:0 230:0.0059523811 231:0.011904762 232:0.011904762 233:0.0059523811 234:0.0059523811 235:0 236:0 237:0.0059523811 238:0.0059523811 239:0 240:0 241:0 242:0 243:0 244:0.0059523811 245:0.0059523811 246:0.029761905 247:0 248:0 249:0 
0.0001 0:0.0060606059 1:0 2:0 3:0.0030303029 4:0.0060606059 5:0 6:0.0030303029 7:0.0060606059 8:0 9:0.0030303029 10:0.0030303029 11:0.018181818 12:0 13:0.0030303029 14:0.0060606059 15:0.0030303029 16:0 17:0.0030303029 18:0.015151515 19:0.0060606059 20:0.0030303029 21:0.0060606059 22:0.018181818 23:0.0030303029 24:0.0030303029 25:0.0060606059 26:0.0030303029 27:0.0030303029 28:0 29:0.0030303029 30:0.0030303029 31:0.0030303029 32:0.0090909088 33:0 34:0.0030303029 35:0.012121212 36:0.0030303029 37:0 38:0.0060606059 39:0.0090909088 40:0.0030303029 41:0 42:0.0030303029 43:0.0030303029 44:0.0030303029 45:0 46:0.0090909088 47:0.0030303029 48:0 49:0 50:0.0060606059 51:0.0060606059 52:0 53:0.0060606059 54:0.0060606059 55:0.0030303029 56:0.0030303029 57:0 58:0.0030303029 59:0.0090909088 60:0 61:0.0030303029 62:0 63:0.0060606059 64:0.015151515 65:0.0060606059 66:0.0030303029 67:0.0030303029 68:0.0060606059 69:0 70:0 71:0 72:0 73:0.0060606059 74:0 75:0.0060606059 76:0 77:0.0030303029 78:0.0030303029 79:0.0030303029 80:0.0030303029 81:0.0090909088 82:0.0030303029 83:0 84:0.0090909088 85:0.0060606059 86:0.012121212 87:0.0060606059 88:0.0030303029 89:0 90:0.0030303029 91:0.0030303029 92:0.0030303029 93:0 94:0.0060606059 95:0.0030303029 96:0.0060606059 97:0 98:0.0060606059 99:0.0030303029 100:0 101:0.0090909088 102:0 103:0.0090909088 104:0 105:0.0030303029 106:0 107:0.0030303029 108:0.0060606059 109:0.0030303029 110:0.0030303029 111:0.0090909088 112:0 113:0.0060606059 114:0.0030303029 115:0 116:0 117:0 118:0.012121212 119:0.0030303029 120:0.0030303029 121:0.0090909088 122:0 123:0.0060606059 124:0 125:0 126:0 127:0 128:0 129:0.0090909088 130:0.012121212 131:0 132:0.0090909088 133:0 134:0.0030303029 135:0 136:0.0060606059 137:0.0030303029 138:0 139:0.0030303029 140:0 141:0.0030303029 142:0 143:0.0090909088 144:0.0060606059 145:0 146:0.0030303029 147:0.0090909088 148:0.0030303029 149:0.0030303029 150:0.0060606059 151:0 152:0 153:0.0060606059 154:0.0060606059 155:0.0090909088 156:0 157:0.0030303029 158:0.0090909088 159:0.0030303029 160:0.0060606059 161:0.0060606059 162:0 163:0 164:0.0090909088 165:0.0030303029 166:0 167:0.0030303029 168:0.0030303029 169:0.0090909088 170:0 171:0.0060606059 172:0.0060606059 173:0 174:0.0060606059 175:0 176:0 177:0.0030303029 178:0.0060606059 179:0 180:0 181:0.0030303029 182:0 183:0 184:0.0030303029 185:0.0030303029 186:0 187:0 188:0.0030303029 189:0.0030303029 190:0.0030303029 191:0 192:0.0060606059 193:0.0030303029 194:0.0060606059 195:0.0090909088 196:0.015151515 197:0.0060606059 198:0.0090909088 199:0 200:0.0060606059 201:0.0030303029 202:0.0060606059 203:0.0060606059 204:0 205:0.012121212 206:0 207:0.0060606059 208:0.0060606059 209:0.0060606059 210:0.0090909088 211:0.0030303029 212:0.012121212 213:0 214:0.0030303029 215:0.0030303029 216:0.0090909088 217:0.0060606059 218:0.0030303029 219:0 220:0.0030303029 221:0.0030303029 222:0.0090909088 223:0.02121212 224:0 225:0 226:0.015151515 227:0.0030303029 228:0 229:0.0030303029 230:0 231:0.0060606059 232:0.0030303029 233:0.0090909088 234:0.0030303029 235:0 236:0.0090909088 237:0.0030303029 238:0.0030303029 239:0.0030303029 240:0.0030303029 241:0 242:0.0030303029 243:0.0030303029 244:0.0090909088 245:0.0090909088 246:0.018181818 247:0.0030303029 248:0.0030303029 249:0.0030303029 
0.0001 0:0.0038022813 1:0.019011406 2:0 3:0.0038022813 4:0.0076045627 5:0 6:0.0038022813 7:0.0038022813 8:0.0038022813 9:0 10:0.0076045627 11:0.0038022813 12:0 13:0 14:0 15:0.0076045627 16:0.0038022813 17:0.015209125 18:0.011406844 19:0.011406844 20:0 21:0.0076045627 22:0 23:0.0076045627 24:0 25:0.0038022813 26:0 27:0 28:0.015209125 29:0.0038022813 30:0 31:0 32:0.0038022813 33:0 34:0.0038022813 35:0 36:0.0038022813 37:0 38:0 39:0 40:0 41:0.0038022813 42:0.015209125 43:0 44:0 45:0 46:0.011406844 47:0 48:0 49:0.011406844 50:0.0038022813 51:0.0038022813 52:0.0076045627 53:0.0038022813 54:0 55:0 56:0 57:0 58:0 59:0 60:0.0038022813 61:0 62:0 63:0 64:0.0076045627 65:0.0038022813 66:0.0038022813 67:0 68:0 69:0.0038022813 70:0.0038022813 71:0 72:0.0076045627 73:0 74:0 75:0.0076045627 76:0 77:0.011406844 78:0.0038022813 79:0.0076045627 80:0 81:0.0076045627 82:0.0038022813 83:0 84:0.0038022813 85:0.0038022813 86:0 87:0 88:0.0038022813 89:0.0038022813 90:0 91:0 92:0.0038022813 93:0 94:0.0038022813 95:0 96:0.0038022813 97:0.0038022813 98:0 99:0.0038022813 100:0 101:0.0076045627 102:0.0038022813 103:0 104:0 105:0.0038022813 106:0 107:0 108:0 109:0 110:0.011406844 111:0.0038022813 112:0.0038022813 113:0.011406844 114:0.0038022813 115:0 116:0 117:0 118:0.011406844 119:0 120:0.0038022813 121:0.0038022813 122:0.0038022813 123:0.0076045627 124:0.011406844 125:0.0038022813 126:0.015209125 127:0.0038022813 128:0.015209125 129:0 130:0 131:0.0038022813 132:0 133:0 134:0.0038022813 135:0.0076045627 136:0 137:0.0038022813 138:0.0038022813 139:0.0038022813 140:0 141:0 142:0 143:0.011406844 144:0.0076045627 145:0.0076045627 146:0 147:0.0076045627 148:0 149:0 150:0.0076045627 151:0.0038022813 152:0.0076045627 153:0.0038022813 154:0.011406844 155:0.011406844 156:0.0038022813 157:0.0038022813 158:0 159:0.011406844 160:0.0038022813 161:0.0038022813 162:0.022813689 163:0.0038022813 164:0 165:0.0076045627 166:0 167:0.02661597 168:0 169:0 170:0.0038022813 171:0.011406844 172:0 173:0 174:0 175:0 176:0.011406844 177:0 178:0.030418251 179:0 180:0.0038022813 181:0.0076045627 182:0.0038022813 183:0 184:0.049429659 185:0 186:0.0076045627 187:0 188:0 189:0.011406844 190:0 191:0 192:0.015209125 193:0 194:0.0038022813 195:0 196:0 197:0 198:0.0076045627 199:0 200:0 201:0.011406844 202:0.0076045627 203:0 204:0.0038022813 205:0 206:0.0038022813 207:0 208:0 209:0.0076045627 210:0.0038022813 211:0.0076045627 212:0.0076045627 213:0 214:0.011406844 215:0 216:0.0038022813 217:0.0038022813 218:0.015209125 219:0 220:0 221:0 222:0.0038022813 223:0 224:0 225:0.0038022813 226:0.011406844 227:0 228:0.0038022813 229:0.0038022813 230:0.011406844 231:0.0038022813 232:0 233:0.0076045627 234:0.0038022813 235:0 236:0 237:0 238:0.011406844 239:0.0038022813 240:0 241:0 242:0.0038022813 243:0.0038022813 244:0 245:0 246:0 247:0.0038022813 248:0.011406844 249:0.0038022813 
0.0001 0:0.0093457941 1:0 2:0 3:0 4:0 5:0 6:0 7:0 8:0.0093457941 9:0 10:0 11:0 12:0 13:0 14:0 15:0 16:0 17:0 18:0.018691588 19:0 20:0 21:0.0093457941 22:0 23:0 24:0 25:0 26:0.0093457941 27:0.0093457941 28:0 29:0 30:0 31:0 32:0 33:0 34:0 35:0.0093457941 36:0 37:0 38:0.028037382 39:0 40:0 41:0 42:0 43:0 44:0 45:0 46:0.028037382 47:0 48:0 49:0 50:0 51:0.056074765 52:0 53:0 54:0 55:0 56:0 57:0.0093457941 58:0 59:0 60:0 61:0 62:0.0093457941 63:0 64:0.0093457941 65:0 66:0 67:0 68:0 69:0.0093457941 70:0 71:0 72:0 73:0.0093457941 74:0.028037382 75:0 76:0 77:0 78:0 79:0 80:0.028037382 81:0 82:0 83:0 84:0.074766353 85:0.0093457941 86:0 87:0 88:0 89:0.018691588 90:0.028037382 91:0 92:0.0093457941 93:0 94:0.0093457941 95:0 96:0 97:0.0093457941 98:0 99:0 100:0.0093457941 101:0 102:0 103:0.0093457941 104:0.0093457941 105:0 106:0.0093457941 107:0 108:0 109:0 110:0 111:0 112:0 113:0 114:0 115:0 116:0.0093457941 117:0 118:0 119:0 120:0 121:0 122:0 123:0.0093457941 124:0.0093457941 125:0 126:0 127:0 128:0.0093457941 129:0 130:0 131:0.0093457941 132:0.0093457941 133:0 134:0.037383176 135:0 136:0 137:0.0093457941 138:0 139:0 140:0 141:0 142:0 143:0 144:0.0093457941 145:0 146:0 147:0.065420561 148:0 149:0 150:0.0093457941 151:0 152:0 153:0 154:0 155:0 156:0 157:0 158:0 159:0 160:0 161:0 162:0.028037382 163:0 164:0.0093457941 165:0 166:0 167:0 168:0 169:0 170:0 171:0 172:0 173:0 174:0 175:0.0093457941 176:0 177:0 178:0.0093457941 179:0 180:0 181:0 182:0.0093457941 183:0 184:0.018691588 185:0 186:0 187:0 188:0 189:0.018691588 190:0.018691588 191:0 192:0 193:0 194:0 195:0.0093457941 196:0 197:0 198:0.0093457941 199:0 200:0 201:0.0093457941 202:0 203:0.0093457941 204:0.018691588 205:0 206:0 207:0 208:0 209:0 210:0 211:0.018691588 212:0 213:0 214:0.018691588 215:0 216:0.037383176 217:0 218:0 219:0.0093457941 220:0.0093457941 221:0.0093457941 222:0 223:0 224:0 225:0 226:0 227:0 228:0 229:0 230:0 231:0.0093457941 232:0.0093457941 233:0 234:0 235:0.0093457941 236:0 237:0 238:0 239:0 240:0 241:0 242:0 243:0 244:0 245:0 246:0.0093457941 247:0 248:0 249:0.0093457941 
0.0001 0:0 1:0 2:0 3:0.0030487804 4:0 5:0.0030487804 6:0 7:0.0030487804 8:0 9:0.0060975607 10:0 11:0.0030487804 12:0 13:0.0091463411 14:0 15:0.0030487804 16:0.0030487804 17:0.0030487804 18:0.0091463411 19:0 20:0 21:0.012195121 22:0.015243902 23:0.0060975607 24:0 25:0 26:0.0030487804 27:0 28:0.0030487804 29:0.0091463411 30:0.015243902 31:0.0030487804 32:0.0030487804 33:0 34:0.0030487804 35:0.0091463411 36:0.015243902 37:0.0030487804 38:0.0060975607 39:0.0060975607 40:0.0091463411 41:0 42:0 43:0.0091463411 44:0.0030487804 45:0 46:0 47:0.0030487804 48:0 49:0.0030487804 50:0 51:0.0060975607 52:0.015243902 53:0 54:0 55:0 56:0 57:0 58:0.0060975607 59:0.0091463411 60:0.0030487804 61:0.012195121 62:0.0091463411 63:0.012195121 64:0.015243902 65:0.0091463411 66:0.0030487804 67:0 68:0.0030487804 69:0 70:0.0030487804 71:0 72:0 73:0.0060975607 74:0 75:0 76:0 77:0 78:0.0060975607 79:0 80:0.0060975607 81:0.0030487804 82:0.0030487804 83:0 84:0.012195121 85:0.0060975607 86:0.012195121 87:0 88:0.0030487804 89:0.0030487804 90:0.0060975607 91:0.021341462 92:0.0030487804 93:0.0030487804 94:0.0060975607 95:0.0030487804 96:0 97:0.0091463411 98:0.0060975607 99:0.018292682 100:0 101:0.0030487804 102:0.0060975607 103:0.015243902 104:0 105:0 106:0 107:0.0060975607 108:0.012195121 109:0.0030487804 110:0.0060975607 111:0.012195121 112:0.0060975607 113:0.0030487804 114:0.0060975607 115:0 116:0 117:0.0060975607 118:0.0030487804 119:0.0030487804 120:0.0030487804 121:0.0030487804 122:0.0030487804 123:0 124:0 125:0 126:0.0030487804 127:0 128:0.0030487804 129:0.0060975607 130:0 131:0.0030487804 132:0.0060975607 133:0.0060975607 134:0 135:0.0060975607 136:0.0091463411 137:0 138:0 139:0.0091463411 140:0.0030487804 141:0 142:0.0030487804 143:0 144:0.0030487804 145:0.0030487804 146:0 147:0.0030487804 148:0 149:0.012195121 150:0 151:0.018292682 152:0.0091463411 153:0.0030487804 154:0.0030487804 155:0.0030487804 156:0 157:0 158:0.0030487804 159:0 160:0.0060975607 161:0 162:0.0030487804 163:0 164:0 165:0 166:0.0030487804 167:0 168:0.0030487804 169:0.0030487804 170:0 171:0.0060975607 172:0 173:0 174:0.0030487804 175:0 176:0.0060975607 177:0 178:0.0060975607 179:0 180:0.0030487804 181:0.015243902 182:0.0030487804 183:0 184:0.012195121 185:0 186:0 187:0.012195121 188:0.0030487804 189:0.0060975607 190:0.0030487804 191:0 192:0.0030487804 193:0.0030487804 194:0.0060975607 195:0.030487804 196:0.0030487804 197:0.0030487804 198:0.0030487804 199:0.0060975607 200:0 201:0.0030487804 202:0.0060975607 203:0 204:0 205:0 206:0 207:0.0060975607 208:0.0060975607 209:0.0091463411 210:0.0091463411 211:0 212:0.0030487804 213:0 214:0.0030487804 215:0.0091463411 216:0.0091463411 217:0 218:0 219:0.0030487804 220:0.0030487804 221:0.0030487804 222:0.0091463411 223:0.0091463411 224:0.0030487804 225:0 226:0.0030487804 227:0.0030487804 228:0.0030487804 229:0 230:0 231:0.0030487804 232:0 233:0.0030487804 234:0.0030487804 235:0 236:0.0030487804 237:0 238:0.012195121 239:0.0030487804 240:0.0060975607 241:0 242:0.0091463411 243:0.0030487804 244:0.0060975607 245:0.0091463411 246:0.012195121 247:0 248:0.018292682 249:0 
0.0001 0:0.005050505 1:0.01010101 2:0.005050505 3:0 4:0 5:0 6:0.01010101 7:0.005050505 8:0.01010101 9:0 10:0 11:0.005050505 12:0 13:0.005050505 14:0 15:0.01010101 16:0 17:0.005050505 18:0.005050505 19:0 20:0 21:0 22:0 23:0 24:0.005050505 25:0 26:0.005050505 27:0.005050505 28:0.030303031 29:0.005050505 30:0.005050505 31:0 32:0.005050505 33:0 34:0.005050505 35:0.005050505 36:0.01010101 37:0.005050505 38:0 39:0.01010101 40:0 41:0 42:0.005050505 43:0.005050505 44:0.015151516 45:0 46:0.01010101 47:0 48:0 49:0 50:0 51:0.005050505 52:0.005050505 53:0.005050505 54:0 55:0.005050505 56:0.005050505 57:0 58:0 59:0 60:0 61:0.02020202 62:0 63:0 64:0 65:0 66:0 67:0 68:0 69:0 70:0.005050505 71:0 72:0 73:0.01010101 74:0 75:0 76:0 77:0.015151516 78:0 79:0.005050505 80:0 81:0 82:0 83:0 84:0.01010101 85:0.01010101 86:0 87:0.04040404 88:0.01010101 89:0.005050505 90:0.01010101 91:0.01010101 92:0 93:0 94:0 95:0.005050505 96:0 97:0.005050505 98:0 99:0.005050505 100:0 101:0.005050505 102:0.01010101 103:0.005050505 104:0 105:0 106:0 107:0 108:0.01010101 109:0 110:0.005050505 111:0 112:0 113:0.01010101 114:0 115:0.005050505 116:0.005050505 117:0.005050505 118:0.005050505 119:0 120:0 121:0.005050505 122:0.01010101 123:0 124:0.005050505 125:0 126:0.02020202 127:0 128:0.015151516 129:0 130:0 131:0 132:0 133:0 134:0.01010101 135:0.005050505 136:0 137:0.005050505 138:0.01010101 139:0 140:0.005050505 141:0 142:0 143:0.005050505 144:0.005050505 145:0 146:0 147:0.015151516 148:0.005050505 149:0.005050505 150:0.005050505 151:0.005050505 152:0 153:0 154:0.005050505 155:0 156:0 157:0 158:0 159:0 160:0.005050505 161:0.005050505 162:0.01010101 163:0.015151516 164:0 165:0 166:0 167:0.02020202 168:0 169:0.005050505 170:0.005050505 171:0.01010101 172:0.005050505 173:0 174:0.005050505 175:0 176:0.005050505 177:0.015151516 178:0.015151516 179:0 180:0.005050505 181:0.005050505 182:0.005050505 183:0 184:0.015151516 185:0.005050505 186:0.005050505 187:0.005050505 188:0 189:0.01010101 190:0 191:0 192:0.015151516 193:0 194:0.005050505 195:0.005050505 196:0.015151516 197:0 198:0.005050505 199:0 200:0.005050505 201:0.01010101 202:0 203:0.005050505 204:0 205:0 206:0.005050505 207:0 208:0.005050505 209:0 210:0.005050505 211:0 212:0 213:0 214:0 215:0 216:0.005050505 217:0 218:0 219:0.005050505 220:0.015151516 221:0.01010101 222:0.005050505 223:0 224:0 225:0 226:0 227:0 228:0.005050505 229:0 230:0 231:0 232:0.01010101 233:0.015151516 234:0.005050505 235:0 236:0.005050505 237:0.005050505 238:0 239:0 240:0.005050505 241:0 242:0 243:0.015151516 244:0 245:0.005050505 246:0.02020202 247:0.005050505 248:0 249:0 
0.0001 0:0 1:0 2:0.0075757578 3:0.0075757578 4:0.0037878789 5:0 6:0.0037878789 7:0 8:0 9:0.0037878789 10:0.0075757578 11:0.0037878789 12:0 13:0.0037878789 14:0 15:0.0075757578 16:0.0075757578 17:0 18:0 19:0 20:0 21:0 22:0 23:0 24:0.011363637 25:0.0075757578 26:0 27:0.018939395 28:0.026515152 29:0 30:0.015151516 31:0 32:0 33:0.0037878789 34:0.0037878789 35:0.0037878789 36:0.011363637 37:0 38:0 39:0.0075757578 40:0.0037878789 41:0 42:0.015151516 43:0.018939395 44:0 45:0 46:0 47:0.0037878789 48:0.0037878789 49:0.0037878789 50:0.0037878789 51:0 52:0.0037878789 53:0.0075757578 54:0 55:0.011363637 56:0.0037878789 57:0.0037878789 58:0.0075757578 59:0.0037878789 60:0 61:0.0037878789 62:0 63:0 64:0.0037878789 65:0 66:0 67:0.0037878789 68:0.0075757578 69:0 70:0.0037878789 71:0 72:0.0075757578 73:0 74:0.030303031 75:0 76:0 77:0 78:0 79:0.0037878789 80:0.0037878789 81:0.0075757578 82:0.0075757578 83:0 84:0 85:0.0075757578 86:0.0037878789 87:0 88:0.0037878789 89:0.0075757578 90:0.0037878789 91:0.011363637 92:0 93:0 94:0.0075757578 95:0.0075757578 96:0.0075757578 97:0.0037878789 98:0.0075757578 99:0 100:0.0075757578 101:0.0037878789 102:0 103:0.0037878789 104:0 105:0.015151516 106:0 107:0.0037878789 108:0.0075757578 109:0 110:0 111:0.0037878789 112:0 113:0.011363637 114:0.0037878789 115:0 116:0.0075757578 117:0.011363637 118:0.011363637 119:0 120:0.0075757578 121:0 122:0.0075757578 123:0 124:0 125:0 126:0.015151516 127:0.0037878789 128:0.015151516 129:0.0037878789 130:0.0037878789 131:0.0037878789 132:0 133:0 134:0 135:0 136:0 137:0 138:0.0075757578 139:0.0037878789 140:0.011363637 141:0.0075757578 142:0.0037878789 143:0 144:0.0037878789 145:0.011363637 146:0 147:0 148:0 149:0.015151516 150:0 151:0 152:0 153:0 154:0.0037878789 155:0.0075757578 156:0.011363637 157:0.0075757578 158:0.0075757578 159:0.0037878789 160:0.0037878789 161:0 162:0.0037878789 163:0 164:0 165:0.0037878789 166:0 167:0.0037878789 168:0 169:0.0037878789 170:0 171:0 172:0 173:0 174:0.0037878789 175:0 176:0 177:0.018939395 178:0.0037878789 179:0 180:0.011363637 181:0 182:0 183:0 184:0.011363637 185:0 186:0 187:0.0075757578 188:0 189:0.0037878789 190:0 191:0.0037878789 192:0.0075757578 193:0 194:0 195:0 196:0.011363637 197:0 198:0.0037878789 199:0.0037878789 200:0.011363637 201:0.0075757578 202:0.0075757578 203:0 204:0 205:0 206:0 207:0.0037878789 208:0 209:0.0075757578 210:0.026515152 211:0.0037878789 212:0.026515152 213:0 214:0 215:0.0037878789 216:0.0037878789 217:0.0075757578 218:0 219:0.0037878789 220:0 221:0 222:0.0037878789 223:0 224:0.0037878789 225:0.0075757578 226:0.0037878789 227:0 228:0.0037878789 229:0.015151516 230:0 231:0 232:0.0037878789 233:0.011363637 234:0.0037878789 235:0 236:0 237:0.0037878789 238:0.011363637 239:0 240:0 241:0 242:0.0037878789 243:0.0075757578 244:0 245:0.0037878789 246:0.011363637 247:0 248:0.0037878789 249:0 
0.0001 0:0 1:0 2:0.0088757398 3:0.0059171598 4:0.0029585799 5:0.0059171598 6:0.0088757398 7:0 8:0.0059171598 9:0.0029585799 10:0 11:0 12:0 13:0 14:0 15:0.0059171598 16:0.0059171598 17:0.0088757398 18:0.0029585799 19:0.0029585799 20:0 21:0.0059171598 22:0 23:0.0029585799 24:0.0029585799 25:0.0059171598 26:0 27:0.0029585799 28:0.0088757398 29:0.0029585799 30:0 31:0.0029585799 32:0.0059171598 33:0 34:0.0029585799 35:0.0029585799 36:0.0059171598 37:0.0088757398 38:0 39:0.0147929 40:0.01183432 41:0 42:0.0029585799 43:0.0059171598 44:0.0029585799 45:0.0029585799 46:0.0029585799 47:0.0029585799 48:0 49:0 50:0 51:0.0029585799 52:0.01183432 53:0.01775148 54:0.0029585799 55:0.0029585799 56:0.0147929 57:0.0029585799 58:0.01183432 59:0 60:0.0088757398 61:0.0059171598 62:0.0088757398 63:0.0088757398 64:0.0029585799 65:0.0029585799 66:0.0029585799 67:0.0029585799 68:0.0088757398 69:0 70:0.0029585799 71:0.0059171598 72:0.0029585799 73:0.0029585799 74:0 75:0.0029585799 76:0 77:0 78:0.01183432 79:0.0029585799 80:0.0059171598 81:0.0029585799 82:0.0088757398 83:0.0059171598 84:0 85:0.0059171598 86:0.0029585799 87:0.0029585799 88:0.0059171598 89:0.0029585799 90:0 91:0 92:0 93:0.0029585799 94:0.0029585799 95:0 96:0.0059171598 97:0.0029585799 98:0 99:0.0029585799 100:0.0029585799 101:0.0029585799 102:0.0059171598 103:0.0029585799 104:0.0059171598 105:0.0059171598 106:0.0029585799 107:0.0029585799 108:0 109:0.0029585799 110:0.0088757398 111:0.0029585799 112:0.0059171598 113:0 114:0.0059171598 115:0 116:0.0029585799 117:0.0088757398 118:0.01183432 119:0 120:0 121:0.0059171598 122:0.0088757398 123:0 124:0.0059171598 125:0 126:0 127:0.0029585799 128:0.0088757398 129:0.0029585799 130:0 131:0.0029585799 132:0 133:0.0088757398 134:0.0029585799 135:0.0029585799 136:0.0059171598 137:0.0029585799 138:0 139:0.01775148 140:0.0029585799 141:0.0029585799 142:0 143:0 144:0.0029585799 145:0.01183432 146:0.0088757398 147:0.0059171598 148:0.0059171598 149:0.0029585799 150:0 151:0.0029585799 152:0 153:0.0059171598 154:0.0029585799 155:0 156:0 157:0.0088757398 158:0 159:0 160:0.0059171598 161:0 162:0.01183432 163:0.01775148 164:0.0088757398 165:0 166:0.0029585799 167:0.0059171598 168:0 169:0.0059171598 170:0.0059171598 171:0.0088757398 172:0 173:0.0029585799 174:0.0147929 175:0.0029585799 176:0.0059171598 177:0 178:0.01183432 179:0 180:0.01183432 181:0.0059171598 182:0.0029585799 183:0 184:0.0088757398 185:0.0059171598 186:0 187:0 188:0 189:0.0029585799 190:0 191:0.0029585799 192:0 193:0 194:0.0029585799 195:0.0059171598 196:0.0088757398 197:0.01183432 198:0.0088757398 199:0.0088757398 200:0 201:0.0029585799 202:0.0059171598 203:0.0059171598 204:0.0088757398 205:0.0059171598 206:0.0029585799 207:0.0029585799 208:0.0029585799 209:0.0029585799 210:0 211:0.0029585799 212:0.0059171598 213:0 214:0.0029585799 215:0 216:0.0088757398 217:0.0029585799 218:0.0029585799 219:0.0059171598 220:0 221:0.0088757398 222:0.0059171598 223:0.0029585799 224:0.0059171598 225:0 226:0.0029585799 227:0 228:0.0029585799 229:0.0029585799 230:0.0059171598 231:0.0059171598 232:0.0029585799 233:0.0029585799 234:0 235:0 236:0 237:0.0088757398 238:0.0088757398 239:0.0029585799 240:0.0029585799 241:0 242:0.0088757398 243:0.0059171598 244:0.0029585799 245:0.0029585799 246:0.0029585799 247:0 248:0.0059171598 249:0 
0.0001 0:0.0058139535 1:0.0058139535 2:0.0058139535 3:0 4:0.011627907 5:0 6:0 7:0 8:0.0058139535 9:0 10:0.0058139535 11:0.017441861 12:0 13:0.0058139535 14:0.0058139535 15:0.0058139535 16:0.0058139535 17:0.0058139535 18:0.011627907 19:0 20:0 21:0 22:0.011627907 23:0.0058139535 24:0.029069766 25:0 26:0.0058139535 27:0.0058139535 28:0.0058139535 29:0 30:0 31:0 32:0 33:0 34:0 35:0.029069766 36:0.0058139535 37:0.0058139535 38:0 39:0 40:0.0058139535 41:0 42:0.023255814 43:0.0058139535 44:0 45:0 46:0 47:0.0058139535 48:0 49:0 50:0 51:0.011627907 52:0.0058139535 53:0 54:0 55:0.0058139535 56:0.011627907 57:0 58:0 59:0.017441861 60:0 61:0.0058139535 62:0 63:0.0058139535 64:0.0058139535 65:0.0058139535 66:0 67:0 68:0 69:0 70:0 71:0 72:0 73:0 74:0.023255814 75:0 76:0 77:0 78:0 79:0 80:0.0058139535 81:0.011627907 82:0.0058139535 83:0 84:0.0058139535 85:0 86:0.023255814 87:0 88:0 89:0 90:0 91:0.017441861 92:0.0058139535 93:0 94:0 95:0.011627907 96:0.011627907 97:0.0058139535 98:0.0058139535 99:0 100:0 101:0 102:0 103:0.0058139535 104:0 105:0 106:0 107:0.0058139535 108:0 109:0 110:0 111:0 112:0 113:0.011627907 114:0 115:0 116:0 117:0.011627907 118:0 119:0 120:0.0058139535 121:0.017441861 122:0.0058139535 123:0.0058139535 124:0.023255814 125:0 126:0.029069766 127:0 128:0 129:0 130:0 131:0 132:0 133:0 134:0.0058139535 135:0 136:0 137:0 138:0 139:0.011627907 140:0.0058139535 141:0 142:0 143:0.0058139535 144:0.0058139535 145:0 146:0 147:0 148:0 149:0.017441861 150:0 151:0 152:0.011627907 153:0 154:0 155:0 156:0 157:0 158:0.011627907 159:0.0058139535 160:0 161:0.0058139535 162:0 163:0.017441861 164:0 165:0.023255814 166:0 167:0.0058139535 168:0.0058139535 169:0.017441861 170:0.0058139535 171:0 172:0 173:0 174:0 175:0 176:0 177:0.011627907 178:0.011627907 179:0 180:0 181:0.0058139535 182:0.0058139535 183:0.011627907 184:0.0058139535 185:0 186:0 187:0 188:0 189:0.011627907 190:0 191:0 192:0.017441861 193:0.0058139535 194:0 195:0 196:0 197:0 198:0.0058139535 199:0.0058139535 200:0.0058139535 201:0.0058139535 202:0 203:0 204:0 205:0.0058139535 206:0 207:0 208:0 209:0.0058139535 210:0.040697675 211:0.017441861 212:0.011627907 213:0 214:0 215:0 216:0 217:0.0058139535 218:0 219:0.011627907 220:0 221:0 222:0.011627907 223:0 224:0 225:0 226:0 227:0 228:0 229:0 230:0 231:0 232:0 233:0.0058139535 234:0 235:0 236:0.0058139535 237:0.0058139535 238:0.0058139535 239:0.0058139535 240:0 241:0 242:0 243:0 244:0.0058139535 245:0 246:0 247:0 248:0.0058139535 249:0 
